{"learner":{"attributes":{"scikit_learn":"{\"_estimator_type\": \"classifier\"}"},"feature_names":[],"feature_types":[],"gradient_booster":{"model":{"gbtree_model_param":{"num_parallel_tree":"1","num_trees":"100"},"iteration_indptr":[0,1,2,3,4,5,6,7,8,9,10,11,12,13,14,15,16,17,18,19,20,21,22,23,24,25,26,27,28,29,30,31,32,33,34,35,36,37,38,39,40,41,42,43,44,45,46,47,48,49,50,51,52,53,54,55,56,57,58,59,60,61,62,63,64,65,66,67,68,69,70,71,72,73,74,75,76,77,78,79,80,81,82,83,84,85,86,87,88,89,90,91,92,93,94,95,96,97,98,99,100],"tree_info":[0,0,0,0,0,0,0,0,0,0,0,0,0,0,0,0,0,0,0,0,0,0,0,0,0,0,0,0,0,0,0,0,0,0,0,0,0,0,0,0,0,0,0,0,0,0,0,0,0,0,0,0,0,0,0,0,0,0,0,0,0,0,0,0,0,0,0,0,0,0,0,0,0,0,0,0,0,0,0,0,0,0,0,0,0,0,0,0,0,0,0,0,0,0,0,0,0,0,0,0],"trees":[{"base_weights":[-2.1775127E-3,2.972677E-1,-6.627155E-1,8.785009E-1,1.0468038E-1,-5.486425E-1,-1.1594042E0,9.665903E-1,3.214775E-1,2.2558644E-1,-5.782415E-1,-7.436503E-1,-2.2691287E-1,-1.0315776E0,-1.3959196E0,1.1794415E0,8.1709194E-1,6.14855E-1,1.1803119E-1,-1.014068E-2,4.4738552E-1,-4.84383E-1,-1.0390702E0,-5.750592E-1,-9.094898E-1,-1.4365617E-2,-4.3152484E-1,-9.173518E-1,-1.3502434E0,-1.6138744E0,-1.2577771E0,9.529176E-2,1.2513839E-1,6.25103E-2,9.6238725E-2,6.8519466E-2,-3.8434282E-2,2.7159188E-2,-2.3077635E-2,6.577115E-2,-6.6205473E-3,4.953944E-4,5.876709E-2,-7.1282275E-2,-3.561105E-2,-1.4239578E-1,-8.438841E-2,-1.0249408E-1,-4.832827E-2,-5.8726694E-2,-1.02068245E-1,3.2900464E-2,-1.9531531E-2,-2.7114525E-2,-7.0521794E-2,-1.2895964E-1,-7.926037E-2,-1.4578153E-1,-5.501243E-2,-1.1486508E-1,-1.7373525E-1,-1.3669452E-1,-8.72117E-2],"categories":[],"categories_nodes":[],"categories_segments":[],"categories_sizes":[],"default_left":[0,0,0,0,0,0,0,0,0,0,0,0,0,0,0,0,0,0,0,0,0,0,0,0,0,0,0,0,0,0,0,0,0,0,0,0,0,0,0,0,0,0,0,0,0,0,0,0,0,0,0,0,0,0,0,0,0,0,0,0,0,0,0],"id":0,"left_children":[1,3,5,7,9,11,13,15,17,19,21,23,25,27,29,31,33,35,37,39,41,43,45,47,49,51,53,55,57,59,61,-1,-1,-1,-1,-1,-1,-1,-1,-1,-1,-1,-1,-1,-1,-1,-1,-1,-1,-1,-1,-1,-1,-1,-1,-1,-1,-1,-1,-1,-1,-1,-1],"loss_changes":[2.2317035E4,8.690186E3,1.9934414E3,9.47751E2,4.8150967E3,1.7956387E3,1.9726465E2,5.298916E2,1.5748935E2,2.5903496E3,3.788872E2,4.9772852E2,4.698261E2,1.5420312E2,6.73125E1,1.1094141E2,2.7285352E2,7.622214E1,8.36248E1,8.9937616E2,1.5843096E3,2.1333606E2,1.102345E2,3.6448682E2,3.2121387E2,3.2936356E2,2.4142163E2,1.451001E2,9.600073E1,4.9125E1,5.834619E1,0E0,0E0,0E0,0E0,0E0,0E0,0E0,0E0,0E0,0E0,0E0,0E0,0E0,0E0,0E0,0E0,0E0,0E0,0E0,0E0,0E0,0E0,0E0,0E0,0E0,0E0,0E0,0E0,0E0,0E0,0E0,0E0],"parents":[2147483647,0,0,1,1,2,2,3,3,4,4,5,5,6,6,7,7,8,8,9,9,10,10,11,11,12,12,13,13,14,14,15,15,16,16,17,17,18,18,19,19,20,20,21,21,22,22,23,23,24,24,25,25,26,26,27,27,28,28,29,29,30,30],"right_children":[2,4,6,8,10,12,14,16,18,20,22,24,26,28,30,32,34,36,38,40,42,44,46,48,50,52,54,56,58,60,62,-1,-1,-1,-1,-1,-1,-1,-1,-1,-1,-1,-1,-1,-1,-1,-1,-1,-1,-1,-1,-1,-1,-1,-1,-1,-1,-1,-1,-1,-1,-1,-1],"split_conditions":[6.0116816E-1,2.985449E-1,5.5551606E-1,5.235185E-1,5.361782E-1,9.0899956E-1,7.697281E-1,1.6701381E-1,1.764721E-1,9.0899956E-1,8.155133E-1,5.8162344E-1,1E0,1.0526316E-1,1E0,1E0,9.102278E-1,1E0,7.2894084E-1,2.6481757E-1,1E0,1E0,5.966178E-1,9.89011E-2,1E0,1E0,4.4453213E-1,8.239169E-1,1E0,7.6170545E-4,9.319664E-1,9.529176E-2,1.2513839E-1,6.25103E-2,9.6238725E-2,6.8519466E-2,-3.8434282E-2,2.7159188E-2,-2.3077635E-2,6.577115E-2,-6.6205473E-3,4.953944E-4,5.876709E-2,-7.1282275E-2,-3.561105E-2,-1.4239578E-1,-8.438841E-2,-1.0249408E-1,-4.832827E-2,-5.8726694E-2,-1.02068245E-1,3.2900464E-2,-1.9531531E-2,-2.7114525E-2,-7.0521794E-2,-1.2895964E-1,-7.926037E-2,-1.4578153E-1,-5.501243E-2,-1.1486508E-1,-1.7373525E-1,-1.3669452E-1,-8.72117E-2],"split_indices":[33,33,31,31,31,11,31,33,33,11,31,10,108,21,128,128,11,1,31,31,128,128,10,14,108,130,10,11,81,5,81,0,0,0,0,0,0,0,0,0,0,0,0,0,0,0,0,0,0,0,0,0,0,0,0,0,0,0,0,0,0,0,0],"split_type":[0,0,0,0,0,0,0,0,0,0,0,0,0,0,0,0,0,0,0,0,0,0,0,0,0,0,0,0,0,0,0,0,0,0,0,0,0,0,0,0,0,0,0,0,0,0,0,0,0,0,0,0,0,0,0,0,0,0,0,0,0,0,0],"sum_hessian":[1.1282716E5,7.763363E4,3.5193523E4,1.9320459E4,5.8313176E4,2.862208E4,6.571442E3,1.6681639E4,2.6388215E3,4.954269E4,8.770482E3,1.7819783E4,1.0802297E4,4.269384E3,2.302058E3,6.8796787E3,9.80196E3,1.0797533E3,1.5590684E3,2.4017717E4,2.5524977E4,7.288134E3,1.4823484E3,8.838797E3,8.980987E3,5.2989316E3,5.5033647E3,3.1456895E3,1.1236943E3,8.889036E2,1.4131544E3,1.6617153E3,5.2179634E3,4.224771E3,5.5771885E3,1.0090354E3,7.071787E1,1.0826561E3,4.7641226E2,1.8592557E3,2.215846E4,6.145224E3,1.9379752E4,2.6191492E3,4.668985E3,4.9666968E2,9.856788E2,1.4958888E3,7.342908E3,2.3056812E3,6.675306E3,1.8284485E3,3.4704832E3,3.471257E3,2.0321079E3,7.872426E2,2.3584468E3,9.89799E2,1.3389539E2,1.8860503E2,7.002986E2,1.099404E3,3.137504E2],"tree_param":{"num_deleted":"0","num_feature":"240","num_nodes":"63","size_leaf_vector":"1"}},{"base_weights":[-3.131105E-3,4.9936223E-1,-3.870234E-1,7.0325017E-1,-1.0858635E-1,2.4858418E-1,-6.2635475E-1,1.0638E0,5.2652675E-1,2.7979457E-1,-3.4025407E-1,6.0674906E-1,2.8827807E-3,-3.9972138E-1,-9.06949E-1,1.3486317E0,9.682087E-1,8.9254284E-1,3.3903992E-1,6.3651085E-1,5.2353602E-2,3.5716377E-2,-5.77508E-1,7.3687565E-1,2.7787772E-1,1.1302152E-1,-6.2960535E-1,-2.2413246E-1,-7.7682525E-1,-7.26205E-1,-1.1354709E0,6.381893E-2,1.3674521E-1,7.567536E-2,1.11878835E-1,1.1434469E-1,7.734119E-2,1.7421532E-2,5.7846982E-2,-2.1502314E-2,7.329958E-2,-5.9609367E-3,5.7172623E-2,-4.556426E-2,1.6006112E-2,-4.9394052E-2,-1.0923278E-1,8.1733994E-2,3.270274E-2,3.5558354E-2,-7.0216365E-2,3.1196013E-2,-9.144571E-3,-3.3448078E-2,-1.01312794E-1,-1.2782583E-2,-7.209088E-2,-6.2811814E-2,-1.1519461E-1,-2.6047215E-2,-7.993863E-2,-4.01017E-2,-1.1753171E-1],"categories":[],"categories_nodes":[],"categories_segments":[],"categories_sizes":[],"default_left":[0,0,0,0,0,0,0,0,0,0,0,0,0,0,0,0,0,0,0,0,0,0,0,0,0,0,0,0,0,0,0,0,0,0,0,0,0,0,0,0,0,0,0,0,0,0,0,0,0,0,0,0,0,0,0,0,0,0,0,0,0,0,0],"id":1,"left_children":[1,3,5,7,9,11,13,15,17,19,21,23,25,27,29,31,33,35,37,39,41,43,45,47,49,51,53,55,57,59,61,-1,-1,-1,-1,-1,-1,-1,-1,-1,-1,-1,-1,-1,-1,-1,-1,-1,-1,-1,-1,-1,-1,-1,-1,-1,-1,-1,-1,-1,-1,-1,-1],"loss_changes":[2.1777291E4,6.060587E3,9.735705E3,2.332416E3,1.1050078E3,1.5406414E3,2.956209E3,3.2658105E2,1.6859653E3,3.722622E2,6.861866E2,3.046338E2,7.2348724E2,1.7029648E3,8.5716406E2,3.9552734E1,2.8635645E2,2.4789111E2,6.4122644E2,1.469403E2,1.630431E2,1.8196753E2,2.0236621E2,1.6802637E2,1.54163E2,3.5982907E2,1.7400409E2,8.3960144E2,4.5508936E2,3.9520703E2,2.6794824E2,0E0,0E0,0E0,0E0,0E0,0E0,0E0,0E0,0E0,0E0,0E0,0E0,0E0,0E0,0E0,0E0,0E0,0E0,0E0,0E0,0E0,0E0,0E0,0E0,0E0,0E0,0E0,0E0,0E0,0E0,0E0,0E0],"parents":[2147483647,0,0,1,1,2,2,3,3,4,4,5,5,6,6,7,7,8,8,9,9,10,10,11,11,12,12,13,13,14,14,15,15,16,16,17,17,18,18,19,19,20,20,21,21,22,22,23,23,24,24,25,25,26,26,27,27,28,28,29,29,30,30],"right_children":[2,4,6,8,10,12,14,16,18,20,22,24,26,28,30,32,34,36,38,40,42,44,46,48,50,52,54,56,58,60,62,-1,-1,-1,-1,-1,-1,-1,-1,-1,-1,-1,-1,-1,-1,-1,-1,-1,-1,-1,-1,-1,-1,-1,-1,-1,-1,-1,-1,-1,-1,-1,-1],"split_conditions":[5.529231E-1,6.071672E-1,4.361088E-1,2.195502E-1,2.8623468E-1,2.4797085E-1,6.231049E-1,2.680278E-1,3.5694295E-1,1E0,1E0,7.694587E-1,5.9311193E-1,7.7933437E-1,7.580893E-1,5E-1,9.0899956E-1,1.6701381E-1,1E0,4.6349596E-2,1E0,8.401072E-1,6.309574E-1,1.593715E-1,7.158471E-1,7.189925E-1,7.580893E-1,5.489816E-1,1E0,4.0359673E-1,2.9471633E-1,6.381893E-2,1.3674521E-1,7.567536E-2,1.11878835E-1,1.1434469E-1,7.734119E-2,1.7421532E-2,5.7846982E-2,-2.1502314E-2,7.329958E-2,-5.9609367E-3,5.7172623E-2,-4.556426E-2,1.6006112E-2,-4.9394052E-2,-1.0923278E-1,8.1733994E-2,3.270274E-2,3.5558354E-2,-7.0216365E-2,3.1196013E-2,-9.144571E-3,-3.3448078E-2,-1.01312794E-1,-1.2782583E-2,-7.209088E-2,-6.2811814E-2,-1.1519461E-1,-2.6047215E-2,-7.993863E-2,-4.01017E-2,-1.1753171E-1],"split_indices":[32,33,33,32,32,33,33,33,33,108,108,32,31,32,32,23,11,33,109,7,154,11,31,8,31,32,32,31,125,31,31,0,0,0,0,0,0,0,0,0,0,0,0,0,0,0,0,0,0,0,0,0,0,0,0,0,0,0,0,0,0,0,0],"split_type":[0,0,0,0,0,0,0,0,0,0,0,0,0,0,0,0,0,0,0,0,0,0,0,0,0,0,0,0,0,0,0,0,0,0,0,0,0,0,0,0,0,0,0,0,0,0,0,0,0,0,0,0,0,0,0,0,0,0,0,0,0,0,0],"sum_hessian":[1.12890266E5,4.8892477E4,6.3997793E4,3.66133E4,1.2279174E4,1.7505988E4,4.6491805E4,1.2041437E4,2.4571865E4,4.587769E3,7.691405E3,7.122246E3,1.0383741E4,2.5720236E4,2.077157E4,3.0224314E3,9.019005E3,8.321901E3,1.6249964E4,1.7855425E3,2.8022266E3,2.9761003E3,4.715304E3,5.102191E3,2.0200557E3,8.844432E3,1.5393097E3,1.7550078E4,8.1701567E3,1.1600558E4,9.171013E3,7.89019E1,2.9435295E3,3.753745E3,5.2652603E3,2.6764265E3,5.6454746E3,9.625474E3,6.6244907E3,1.8159909E2,1.6039434E3,2.3059995E3,4.962271E2,6.005018E2,2.3755986E3,4.0584768E3,6.568272E2,4.264049E3,8.381419E2,1.8722456E3,1.4780998E2,4.482555E3,4.3618765E3,8.70965E2,6.683446E2,1.4701296E4,2.848783E3,5.8526836E3,2.3174734E3,1.5759044E3,1.0024653E4,4.725192E2,8.698494E3],"tree_param":{"num_deleted":"0","num_feature":"240","num_nodes":"63","size_leaf_vector":"1"}},{"base_weights":[-4.2174263E-3,4.655482E-1,-3.4094474E-1,6.536191E-1,-8.278014E-2,3.723864E-1,-5.119975E-1,9.626165E-1,4.9733263E-1,2.1313171E-1,-3.0395707E-1,6.9763845E-1,2.2948882E-1,-3.072236E-1,-7.897727E-1,1.1706884E0,8.231301E-1,8.823979E-1,3.5321233E-1,-2.8553898E-2,5.47634E-1,-4.6084175E-1,8.559773E-3,8.510924E-1,4.257893E-1,3.5016534E-1,-1.6065884E-1,-1.4379299E-1,-6.5572E-1,-6.6626596E-1,-1.0124226E0,2.733309E-2,1.19255185E-1,1.0402782E-1,7.138916E-2,9.584129E-2,5.4788094E-2,4.4221483E-2,-9.530991E-3,2.2916317E-2,-2.806787E-2,-5.5589277E-2,6.165619E-2,-5.6557734E-2,-3.910629E-3,1.1733736E-2,-4.7526803E-2,-1.8817168E-1,8.5816465E-2,4.7344305E-2,-5.55488E-2,1.929903E-2,5.1196367E-2,3.5762254E-3,-6.1115682E-2,-4.6143765E-3,-5.1576126E-2,-8.377734E-2,-4.1025475E-2,-4.3119483E-2,-7.981062E-2,-1.2665431E-1,-9.0570934E-2],"categories":[],"categories_nodes":[],"categories_segments":[],"categories_sizes":[],"default_left":[0,0,0,0,0,0,0,0,0,0,0,0,0,0,0,0,0,0,0,0,0,0,0,0,0,0,0,0,0,0,0,0,0,0,0,0,0,0,0,0,0,0,0,0,0,0,0,0,0,0,0,0,0,0,0,0,0,0,0,0,0,0,0],"id":2,"left_children":[1,3,5,7,9,11,13,15,17,19,21,23,25,27,29,31,33,35,37,39,41,43,45,47,49,51,53,55,57,59,61,-1,-1,-1,-1,-1,-1,-1,-1,-1,-1,-1,-1,-1,-1,-1,-1,-1,-1,-1,-1,-1,-1,-1,-1,-1,-1,-1,-1,-1,-1,-1,-1],"loss_changes":[1.7805357E4,4.846589E3,8.000246E3,1.6894736E3,7.8568317E2,5.892612E2,3.0078662E3,3.4015527E2,1.2895186E3,4.1514526E2,3.3681512E2,1.6110034E2,4.149543E2,1.7338396E3,6.1643164E2,9.217139E1,1.6624658E2,1.6041455E2,6.752363E2,1.9382513E2,1.6417853E2,2.0199939E2,1.20944145E2,4.9409912E1,6.565973E1,1.7107013E2,1.8429619E2,7.527988E2,4.3396924E2,4.4709277E2,2.1593262E2,0E0,0E0,0E0,0E0,0E0,0E0,0E0,0E0,0E0,0E0,0E0,0E0,0E0,0E0,0E0,0E0,0E0,0E0,0E0,0E0,0E0,0E0,0E0,0E0,0E0,0E0,0E0,0E0,0E0,0E0,0E0,0E0],"parents":[2147483647,0,0,1,1,2,2,3,3,4,4,5,5,6,6,7,7,8,8,9,9,10,10,11,11,12,12,13,13,14,14,15,15,16,16,17,17,18,18,19,19,20,20,21,21,22,22,23,23,24,24,25,25,26,26,27,27,28,28,29,29,30,30],"right_children":[2,4,6,8,10,12,14,16,18,20,22,24,26,28,30,32,34,36,38,40,42,44,46,48,50,52,54,56,58,60,62,-1,-1,-1,-1,-1,-1,-1,-1,-1,-1,-1,-1,-1,-1,-1,-1,-1,-1,-1,-1,-1,-1,-1,-1,-1,-1,-1,-1,-1,-1,-1,-1],"split_conditions":[5.387602E-1,6.0116816E-1,3.517042E-1,3.4650713E-1,3.0281237E-1,1.6701381E-1,6.091644E-1,2.3939285E-1,1.8964277E-1,9.0899956E-1,9.273113E-1,7.413527E-1,7.8764266E-1,7.7423996E-1,7.7933437E-1,5E-1,1.6701381E-1,6.5997744E-1,7.069898E-1,5.966178E-1,5.610438E-1,1E0,1E0,7.286517E-3,7.999436E-1,9.1782045E-1,1E0,1E0,9.0899956E-1,1E0,1E0,2.733309E-2,1.19255185E-1,1.0402782E-1,7.138916E-2,9.584129E-2,5.4788094E-2,4.4221483E-2,-9.530991E-3,2.2916317E-2,-2.806787E-2,-5.5589277E-2,6.165619E-2,-5.6557734E-2,-3.910629E-3,1.1733736E-2,-4.7526803E-2,-1.8817168E-1,8.5816465E-2,4.7344305E-2,-5.55488E-2,1.929903E-2,5.1196367E-2,3.5762254E-3,-6.1115682E-2,-4.6143765E-3,-5.1576126E-2,-8.377734E-2,-4.1025475E-2,-4.3119483E-2,-7.981062E-2,-1.2665431E-1,-9.0570934E-2],"split_indices":[32,33,33,33,32,33,33,32,32,11,11,32,32,32,32,23,33,10,10,10,81,148,125,6,10,11,125,125,11,108,83,0,0,0,0,0,0,0,0,0,0,0,0,0,0,0,0,0,0,0,0,0,0,0,0,0,0,0,0,0,0,0,0],"split_type":[0,0,0,0,0,0,0,0,0,0,0,0,0,0,0,0,0,0,0,0,0,0,0,0,0,0,0,0,0,0,0,0,0,0,0,0,0,0,0,0,0,0,0,0,0,0,0,0,0,0,0,0,0,0,0,0,0,0,0,0,0,0,0],"sum_hessian":[1.1255983E5,4.6995875E4,6.556395E4,3.4993332E4,1.2002542E4,1.2680797E4,5.2883152E4,1.1752349E4,2.3240982E4,5.1339224E3,6.8686196E3,3.86949E3,8.811307E3,3.0442941E4,2.2440213E4,4.713632E3,7.0387173E3,6.3281377E3,1.6912846E4,2.9809973E3,2.1529248E3,4.5726553E3,2.2959648E3,2.4719746E3,1.3975154E3,6.729812E3,2.0814946E3,2.0725117E4,9.717824E3,1.4436237E4,8.0039746E3,1.12433815E2,4.601198E3,2.3529395E3,4.6857773E3,5.154886E3,1.173251E3,1.4112454E4,2.8003906E3,1.474195E3,1.5068025E3,1.26153824E2,2.0267709E3,3.6627026E3,9.0995233E2,1.87514E3,4.2082474E2,5.6964884E0,2.466278E3,1.3332847E3,6.423076E1,3.41479E3,3.315022E3,1.4501411E3,6.3135364E2,1.641656E4,4.3085566E3,5.578226E3,4.1395977E3,5.188827E3,9.24741E3,2.363887E3,5.640088E3],"tree_param":{"num_deleted":"0","num_feature":"240","num_nodes":"63","size_leaf_vector":"1"}},{"base_weights":[3.5228205E-3,4.9237463E-1,-2.6029298E-1,6.382492E-1,-5.1512267E-2,3.3842707E-1,-4.390124E-1,8.933235E-1,4.8565283E-1,-2.4170917E-1,2.5496474E-1,5.6392604E-1,1.3004327E-1,-2.2993435E-1,-6.797547E-1,1.0516337E0,7.565237E-1,8.2427126E-1,3.4468776E-1,8.3976924E-2,-4.057243E-1,9.184657E-1,1.6082868E-1,6.7846334E-1,2.0525555E-1,2.3901288E-1,-1.6871716E-1,-4.1838907E-2,-5.0847745E-1,-5.211417E-1,-8.7830836E-1,1.192919E-1,9.4860084E-2,6.773915E-2,9.997099E-2,6.687333E-2,1.02117315E-1,1.8962046E-2,5.6977715E-2,-3.191301E-2,2.3739794E-2,7.573185E-3,-5.141235E-2,-2.0361401E-2,9.974697E-2,2.646614E-2,-4.085215E-2,7.555925E-2,4.1381177E-2,2.7296353E-2,-5.277415E-2,-1.8668823E-2,2.9037474E-2,-3.6726918E-2,1.3203444E-2,-1.8366931E-2,1.8406559E-2,-3.7443623E-2,-7.0532955E-2,-4.098643E-2,-8.237869E-2,-9.716303E-2,-6.5914355E-2],"categories":[],"categories_nodes":[],"categories_segments":[],"categories_sizes":[],"default_left":[0,0,0,0,0,0,0,0,0,0,0,0,0,0,0,0,0,0,0,0,0,0,0,0,0,0,0,0,0,0,0,0,0,0,0,0,0,0,0,0,0,0,0,0,0,0,0,0,0,0,0,0,0,0,0,0,0,0,0,0,0,0,0],"id":3,"left_children":[1,3,5,7,9,11,13,15,17,19,21,23,25,27,29,31,33,35,37,39,41,43,45,47,49,51,53,55,57,59,61,-1,-1,-1,-1,-1,-1,-1,-1,-1,-1,-1,-1,-1,-1,-1,-1,-1,-1,-1,-1,-1,-1,-1,-1,-1,-1,-1,-1,-1,-1,-1,-1],"loss_changes":[1.4466252E4,3.1193809E3,7.795714E3,1.2062598E3,4.8479834E2,7.869369E2,2.8239004E3,2.5049219E2,9.2572363E2,2.7416473E2,1.9878241E2,3.3029858E2,2.8346478E2,1.5733037E3,8.208203E2,7.712891E1,1.1917407E2,1.7392822E2,4.7804688E2,1.064268E2,1.7817316E2,3.5265137E1,1.6507083E2,1.2412549E2,9.6839066E1,1.3954092E2,1.3902237E2,5.743884E2,3.191255E2,4.8797192E2,2.3619238E2,0E0,0E0,0E0,0E0,0E0,0E0,0E0,0E0,0E0,0E0,0E0,0E0,0E0,0E0,0E0,0E0,0E0,0E0,0E0,0E0,0E0,0E0,0E0,0E0,0E0,0E0,0E0,0E0,0E0,0E0,0E0,0E0],"parents":[2147483647,0,0,1,1,2,2,3,3,4,4,5,5,6,6,7,7,8,8,9,9,10,10,11,11,12,12,13,13,14,14,15,15,16,16,17,17,18,18,19,19,20,20,21,21,22,22,23,23,24,24,25,25,26,26,27,27,28,28,29,29,30,30],"right_children":[2,4,6,8,10,12,14,16,18,20,22,24,26,28,30,32,34,36,38,40,42,44,46,48,50,52,54,56,58,60,62,-1,-1,-1,-1,-1,-1,-1,-1,-1,-1,-1,-1,-1,-1,-1,-1,-1,-1,-1,-1,-1,-1,-1,-1,-1,-1,-1,-1,-1,-1,-1,-1],"split_conditions":[4.738965E-1,6.409053E-1,3.8373482E-1,3.89207E-1,1E0,2.4107198E-1,7.243171E-1,2.3939285E-1,1.7887457E-1,3.867531E-1,8.950937E-2,7.662751E-1,7.725901E-1,6.091644E-1,6.21118E-1,2.0260796E-1,1E0,1E0,1E0,1E0,1.5818574E-1,4.6033695E-2,1.919192E-1,1E0,9.886E-1,4.269663E-2,1E0,1E0,5.6020296E-1,1E0,9.1782045E-1,1.192919E-1,9.4860084E-2,6.773915E-2,9.997099E-2,6.687333E-2,1.02117315E-1,1.8962046E-2,5.6977715E-2,-3.191301E-2,2.3739794E-2,7.573185E-3,-5.141235E-2,-2.0361401E-2,9.974697E-2,2.646614E-2,-4.085215E-2,7.555925E-2,4.1381177E-2,2.7296353E-2,-5.277415E-2,-1.8668823E-2,2.9037474E-2,-3.6726918E-2,1.3203444E-2,-1.8366931E-2,1.8406559E-2,-3.7443623E-2,-7.0532955E-2,-4.098643E-2,-8.237869E-2,-9.716303E-2,-6.5914355E-2],"split_indices":[32,33,33,33,109,33,32,32,32,10,32,32,32,33,33,33,148,109,109,128,32,7,8,125,50,6,109,109,10,125,11,0,0,0,0,0,0,0,0,0,0,0,0,0,0,0,0,0,0,0,0,0,0,0,0,0,0,0,0,0,0,0,0],"split_type":[0,0,0,0,0,0,0,0,0,0,0,0,0,0,0,0,0,0,0,0,0,0,0,0,0,0,0,0,0,0,0,0,0,0,0,0,0,0,0,0,0,0,0,0,0,0,0,0,0,0,0,0,0,0,0,0,0,0,0,0,0,0,0],"sum_hessian":[1.12168336E5,3.9315562E4,7.285277E4,3.1000752E4,8.31481E3,1.6747344E4,5.610543E4,1.1602164E4,1.9398588E4,5.130857E3,3.1839526E3,8.042541E3,8.704804E3,3.0028473E4,2.6076955E4,5.3751426E3,6.2270215E3,5.7004463E3,1.3698142E4,1.718636E3,3.412221E3,3.945167E2,2.789436E3,6.0952134E3,1.9473276E3,6.378511E3,2.3262927E3,1.7925104E4,1.2103369E4,1.4498543E4,1.1578412E4,2.2623242E3,3.1128184E3,4.7010854E3,1.525936E3,3.1871938E3,2.5132524E3,8.111711E3,5.586431E3,4.7348767E2,1.2451483E3,6.271279E2,2.785093E3,2.5846508E1,3.686702E2,2.3596418E3,4.2979407E2,4.718279E3,1.3769343E3,1.7832354E3,1.6409238E2,6.8644354E2,5.6920674E3,1.401091E3,9.252018E2,1.1011747E4,6.913357E3,7.202154E3,4.901215E3,1.0602529E4,3.896014E3,8.118195E3,3.4602175E3],"tree_param":{"num_deleted":"0","num_feature":"240","num_nodes":"63","size_leaf_vector":"1"}},{"base_weights":[2.4619107E-3,2.9139E-1,-3.674425E-1,4.5208436E-1,-1.5891154E-1,9.806916E-2,-5.582181E-1,7.274785E-1,2.9540056E-1,2.0622614E-1,-3.1029183E-1,4.7372028E-1,-2.1011353E-2,-6.885844E-1,-3.2661042E-1,9.9700105E-1,6.433016E-1,6.916359E-1,1.8594827E-1,3.8623896E-3,4.9453786E-1,-4.595036E-1,-7.524849E-2,5.228234E-1,-2.3327024E-1,1.0721231E-1,-3.8268965E-1,-6.002056E-1,-9.659943E-1,-6.3592213E-1,-1.8193269E-1,1.1657842E-1,9.135621E-2,7.268315E-2,3.6146175E-2,7.725331E-2,3.220969E-2,3.366525E-3,3.4664057E-2,7.629044E-3,-6.0147E-2,9.978874E-2,3.6833074E-2,-2.8975783E-2,-6.387792E-2,3.373221E-3,-5.174892E-2,6.0628064E-2,2.198578E-2,4.8861635E-4,-1.2766185E-1,2.1259388E-2,-3.4870524E-2,-2.0500759E-2,-6.0245484E-2,-5.1477797E-2,-9.072961E-2,-8.466915E-2,-1.1196708E-1,-5.107003E-2,-9.144058E-2,-1.0601049E-2,-6.595456E-2],"categories":[],"categories_nodes":[],"categories_segments":[],"categories_sizes":[],"default_left":[0,0,0,0,0,0,0,0,0,0,0,0,0,0,0,0,0,0,0,0,0,0,0,0,0,0,0,0,0,0,0,0,0,0,0,0,0,0,0,0,0,0,0,0,0,0,0,0,0,0,0,0,0,0,0,0,0,0,0,0,0,0,0],"id":4,"left_children":[1,3,5,7,9,11,13,15,17,19,21,23,25,27,29,31,33,35,37,39,41,43,45,47,49,51,53,55,57,59,61,-1,-1,-1,-1,-1,-1,-1,-1,-1,-1,-1,-1,-1,-1,-1,-1,-1,-1,-1,-1,-1,-1,-1,-1,-1,-1,-1,-1,-1,-1,-1,-1],"loss_changes":[1.1929448E4,4.5348877E3,4.3472515E3,1.9927607E3,9.1115857E2,6.365653E2,1.0481416E3,3.7933398E2,1.2766589E3,2.8188208E2,4.086372E2,1.1902954E2,5.011762E2,5.440762E2,5.5957263E2,5.5043457E1,3.002539E2,1.9023218E2,5.645142E2,1.2455413E2,1.26212616E2,2.1671509E2,2.1815479E2,8.085535E1,5.545092E1,3.8340256E2,1.1032489E2,4.4158887E2,9.74292E1,1.3850903E2,3.0897034E2,0E0,0E0,0E0,0E0,0E0,0E0,0E0,0E0,0E0,0E0,0E0,0E0,0E0,0E0,0E0,0E0,0E0,0E0,0E0,0E0,0E0,0E0,0E0,0E0,0E0,0E0,0E0,0E0,0E0,0E0,0E0,0E0],"parents":[2147483647,0,0,1,1,2,2,3,3,4,4,5,5,6,6,7,7,8,8,9,9,10,10,11,11,12,12,13,13,14,14,15,15,16,16,17,17,18,18,19,19,20,20,21,21,22,22,23,23,24,24,25,25,26,26,27,27,28,28,29,29,30,30],"right_children":[2,4,6,8,10,12,14,16,18,20,22,24,26,28,30,32,34,36,38,40,42,44,46,48,50,52,54,56,58,60,62,-1,-1,-1,-1,-1,-1,-1,-1,-1,-1,-1,-1,-1,-1,-1,-1,-1,-1,-1,-1,-1,-1,-1,-1,-1,-1,-1,-1,-1,-1,-1,-1],"split_conditions":[6.447098E-1,6.091644E-1,4.5932934E-1,3.0281237E-1,2.9788724E-1,1.9435002E-1,9.1782045E-1,2.680278E-1,2.7395734E-1,9.1229343E-1,9.0899956E-1,1E0,1E0,1E0,1E0,8.950937E-2,6.153326E-1,1E0,9.1664803E-1,8.706106E-1,6.528196E-2,7.483392E-1,1E0,1.593715E-1,8.062025E-1,6.8399096E-1,7.7423996E-1,8.2922155E-1,6.682421E-1,8.01E-2,8.412816E-1,1.1657842E-1,9.135621E-2,7.268315E-2,3.6146175E-2,7.725331E-2,3.220969E-2,3.366525E-3,3.4664057E-2,7.629044E-3,-6.0147E-2,9.978874E-2,3.6833074E-2,-2.8975783E-2,-6.387792E-2,3.373221E-3,-5.174892E-2,6.0628064E-2,2.198578E-2,4.8861635E-4,-1.2766185E-1,2.1259388E-2,-3.4870524E-2,-2.0500759E-2,-6.0245484E-2,-5.1477797E-2,-9.072961E-2,-8.466915E-2,-1.1196708E-1,-5.107003E-2,-9.144058E-2,-1.0601049E-2,-6.595456E-2],"split_indices":[32,33,33,32,32,33,11,33,33,11,11,1,125,125,128,32,10,125,11,33,32,33,125,8,32,10,32,32,33,73,32,0,0,0,0,0,0,0,0,0,0,0,0,0,0,0,0,0,0,0,0,0,0,0,0,0,0,0,0,0,0,0,0],"split_type":[0,0,0,0,0,0,0,0,0,0,0,0,0,0,0,0,0,0,0,0,0,0,0,0,0,0,0,0,0,0,0,0,0,0,0,0,0,0,0,0,0,0,0,0,0,0,0,0,0,0,0,0,0,0,0,0,0,0,0,0,0,0,0],"sum_hessian":[1.11617766E5,6.2668406E4,4.894936E4,4.6186363E4,1.6482045E4,1.4229192E4,3.4720168E4,1.674717E4,2.9439191E4,4.8304263E3,1.1651618E4,3.4242097E3,1.0804982E4,2.2214309E4,1.2505857E4,3.9830781E3,1.2764093E4,6.3707407E3,2.3068451E4,2.8388635E3,1.9915627E3,7.126544E3,4.525074E3,3.2020745E3,2.2213535E2,7.977478E3,2.8275044E3,1.6849475E4,5.364834E3,3.9842944E3,8.521563E3,1.3133727E3,2.6697056E3,9.84478E3,2.9193123E3,5.2256777E3,1.145063E3,1.1844757E4,1.1223694E4,2.5362722E3,3.0259113E2,3.978638E2,1.593699E3,3.6619082E3,3.4646357E3,3.6311736E3,8.939008E2,2.509725E3,6.923494E2,1.8166379E2,4.0471565E1,6.4801733E3,1.4973047E3,1.5645139E3,1.2629905E3,1.3184448E4,3.6650269E3,3.0238523E3,2.3409817E3,2.7503962E3,1.2338983E3,7.35381E3,1.1677529E3],"tree_param":{"num_deleted":"0","num_feature":"240","num_nodes":"63","size_leaf_vector":"1"}},{"base_weights":[4.6571487E-4,3.276372E-1,-2.7473307E-1,4.5972392E-1,-1.4338158E-1,1.21256664E-1,-4.6736935E-1,7.177869E-1,3.279281E-1,5.893721E-3,-4.0451413E-1,2.2540163E-1,-3.218645E-1,-3.874689E-1,-8.543338E-1,7.55994E-1,2.0541105E-1,6.200212E-1,1.9892792E-1,5.9077585E-1,-7.356235E-2,-9.7562605E-1,-3.252171E-1,4.3710622E-1,5.73335E-2,1.3621677E-1,-4.9464145E-1,-2.5674614E-1,-6.1723757E-1,-7.136719E-1,-9.8556924E-1,9.149977E-2,6.5424584E-2,7.8612424E-2,3.6110026E-3,6.6644445E-2,2.5968764E-2,2.7610717E-2,-3.4708187E-2,-4.424604E-2,6.752319E-2,8.871172E-4,-5.8358353E-2,-7.742607E-2,-1.5986012E-1,-1.6332928E-2,-5.223621E-2,5.8048833E-2,2.1356892E-2,-2.582767E-2,1.7197803E-2,3.891965E-2,-2.3409262E-2,-3.7294313E-2,-9.304345E-2,-1.8157924E-2,-7.337921E-2,-6.3030194E-3,-6.6488035E-2,-6.1325103E-2,-1.0176857E-1,-1.4206545E-1,-9.449397E-2],"categories":[],"categories_nodes":[],"categories_segments":[],"categories_sizes":[],"default_left":[0,0,0,0,0,0,0,0,0,0,0,0,0,0,0,0,0,0,0,0,0,0,0,0,0,0,0,0,0,0,0,0,0,0,0,0,0,0,0,0,0,0,0,0,0,0,0,0,0,0,0,0,0,0,0,0,0,0,0,0,0,0,0],"id":5,"left_children":[1,3,5,7,9,11,13,15,17,19,21,23,25,27,29,31,33,35,37,39,41,43,45,47,49,51,53,55,57,59,61,-1,-1,-1,-1,-1,-1,-1,-1,-1,-1,-1,-1,-1,-1,-1,-1,-1,-1,-1,-1,-1,-1,-1,-1,-1,-1,-1,-1,-1,-1,-1,-1],"loss_changes":[9.980325E3,3.1507368E3,4.592636E3,1.3449453E3,4.3236725E2,9.0938153E2,1.2519482E3,2.615752E2,9.864148E2,3.280653E2,1.8238898E2,5.676585E2,2.9686926E2,1.00822754E3,1.2723926E2,2.006836E2,9.132089E1,1.3398877E2,7.6548315E2,7.397589E1,2.6130597E2,6.0401794E1,1.1302283E2,2.2617798E2,3.218976E2,9.6379555E1,1.440799E2,7.6723254E2,3.213872E2,1.0161597E2,6.1994385E1,0E0,0E0,0E0,0E0,0E0,0E0,0E0,0E0,0E0,0E0,0E0,0E0,0E0,0E0,0E0,0E0,0E0,0E0,0E0,0E0,0E0,0E0,0E0,0E0,0E0,0E0,0E0,0E0,0E0,0E0,0E0,0E0],"parents":[2147483647,0,0,1,1,2,2,3,3,4,4,5,5,6,6,7,7,8,8,9,9,10,10,11,11,12,12,13,13,14,14,15,15,16,16,17,17,18,18,19,19,20,20,21,21,22,22,23,23,24,24,25,25,26,26,27,27,28,28,29,29,30,30],"right_children":[2,4,6,8,10,12,14,16,18,20,22,24,26,28,30,32,34,36,38,40,42,44,46,48,50,52,54,56,58,60,62,-1,-1,-1,-1,-1,-1,-1,-1,-1,-1,-1,-1,-1,-1,-1,-1,-1,-1,-1,-1,-1,-1,-1,-1,-1,-1,-1,-1,-1,-1,-1,-1],"split_conditions":[5.721203E-1,6.409053E-1,4.8488507E-1,2.3939285E-1,5.966178E-1,5.235185E-1,5.9954834E-1,5.5551606E-1,3.517042E-1,1.2360009E-1,3.964045E-2,2.92269E-1,2.2638622E-1,6.8362826E-1,7.530653E-1,3.9655888E-1,2.4107198E-1,5.361782E-1,5.235185E-1,4.050544E-2,5.2981836E-1,3.4442937E-1,3.7514994E-1,7.413527E-1,1E0,7.4804354E-1,7.843563E-1,8.371449E-1,3.021753E-1,9.826E-1,7E-3,9.149977E-2,6.5424584E-2,7.8612424E-2,3.6110026E-3,6.6644445E-2,2.5968764E-2,2.7610717E-2,-3.4708187E-2,-4.424604E-2,6.752319E-2,8.871172E-4,-5.8358353E-2,-7.742607E-2,-1.5986012E-1,-1.6332928E-2,-5.223621E-2,5.8048833E-2,2.1356892E-2,-2.582767E-2,1.7197803E-2,3.891965E-2,-2.3409262E-2,-3.7294313E-2,-9.304345E-2,-1.8157924E-2,-7.337921E-2,-6.3030194E-3,-6.6488035E-2,-6.1325103E-2,-1.0176857E-1,-1.4206545E-1,-9.449397E-2],"split_indices":[32,33,33,32,10,31,31,31,33,32,6,33,33,33,32,33,33,31,31,7,31,9,32,32,128,32,31,32,31,50,52,0,0,0,0,0,0,0,0,0,0,0,0,0,0,0,0,0,0,0,0,0,0,0,0,0,0,0,0,0,0,0,0],"split_type":[0,0,0,0,0,0,0,0,0,0,0,0,0,0,0,0,0,0,0,0,0,0,0,0,0,0,0,0,0,0,0,0,0,0,0,0,0,0,0,0,0,0,0,0,0,0,0,0,0,0,0,0,0,0,0,0,0,0,0,0,0,0,0],"sum_hessian":[1.1084469E5,5.0640402E4,6.020429E4,3.9549617E4,1.1090784E4,1.9702836E4,4.0501453E4,1.3368656E4,2.618096E4,7.0574185E3,4.033366E3,1.5953777E4,3.7490598E3,3.357159E4,6.9298623E3,1.244051E4,9.2814594E2,8.0192617E3,1.81617E4,8.433106E2,6.214108E3,4.903647E2,3.5430012E3,7.059623E3,8.894154E3,1.0268357E3,2.722224E3,2.1399084E4,1.2172507E4,3.347912E3,3.5819502E3,4.8513013E3,7.589209E3,2.0868835E2,7.194576E2,7.10327E3,9.1599194E2,1.5912885E4,2.2488137E3,6.3402668E1,7.799079E2,5.3503296E3,8.637785E2,3.7227603E2,1.1808864E2,1.9464668E3,1.5965344E3,4.2999424E3,2.7596807E3,2.3695786E3,6.524575E3,6.100348E2,4.1680096E2,2.1294233E3,5.928009E2,1.8487445E4,2.9116396E3,9.6376514E2,1.1208742E4,2.5188953E3,8.2901697E2,3.0302417E2,3.278926E3],"tree_param":{"num_deleted":"0","num_feature":"240","num_nodes":"63","size_leaf_vector":"1"}},{"base_weights":[2.331899E-3,3.4974247E-1,-2.1344098E-1,4.7723716E-1,-1.5917419E-2,2.3836575E-1,-3.4684134E-1,7.740433E-1,3.8745907E-1,-2.4994919E-1,1.6675393E-1,3.234155E-1,-1.9562572E-1,-2.2021686E-1,-6.251956E-1,8.026274E-1,1.7064865E-1,6.080936E-1,2.557675E-1,3.897081E-1,-3.0818754E-1,5.000358E-1,2.7808854E-2,6.918937E-1,2.5532568E-1,4.459256E-2,-4.2257187E-1,-1.544415E-1,-7.025772E-1,-5.5628324E-1,-9.114478E-1,1.0518881E-1,7.425277E-2,-2.1239527E-1,2.6418865E-2,6.4831235E-2,2.803575E-2,3.105549E-2,-3.0148515E-2,5.396098E-2,-4.87899E-2,-6.26243E-2,-1.9837517E-2,5.8447927E-2,-4.7535103E-2,-8.405845E-3,3.456639E-2,2.9697776E-2,8.0498815E-2,5.5971075E-2,1.731263E-2,1.0956652E-2,-1.4321938E-1,-6.006061E-2,-9.205636E-3,-6.7739645E-3,-4.667694E-2,-6.0943034E-2,-1.0374953E-1,-4.3387495E-2,-7.234797E-2,-8.321616E-2,-1.21745445E-1],"categories":[],"categories_nodes":[],"categories_segments":[],"categories_sizes":[],"default_left":[0,0,0,0,0,0,0,0,0,0,0,0,0,0,0,0,0,0,0,0,0,0,0,0,0,0,0,0,0,0,0,0,0,0,0,0,0,0,0,0,0,0,0,0,0,0,0,0,0,0,0,0,0,0,0,0,0,0,0,0,0,0,0],"id":6,"left_children":[1,3,5,7,9,11,13,15,17,19,21,23,25,27,29,31,33,35,37,39,41,43,45,47,49,51,53,55,57,59,61,-1,-1,-1,-1,-1,-1,-1,-1,-1,-1,-1,-1,-1,-1,-1,-1,-1,-1,-1,-1,-1,-1,-1,-1,-1,-1,-1,-1,-1,-1,-1,-1],"loss_changes":[8.247667E3,1.9652109E3,4.0907493E3,8.325679E2,4.6598267E2,5.711508E2,1.8467749E3,1.2504004E2,6.971604E2,1.781211E2,2.834718E2,3.2441272E2,1.3826569E2,1.1426381E3,3.226753E2,1.03020996E2,7.12908E1,1.1804834E2,4.5898425E2,5.2776882E1,1.5285489E2,1.4863113E2,1.536944E2,8.985388E1,2.731501E2,1.1844885E2,7.667906E1,8.5830066E2,1.3419214E2,2.6998486E2,7.607446E1,0E0,0E0,0E0,0E0,0E0,0E0,0E0,0E0,0E0,0E0,0E0,0E0,0E0,0E0,0E0,0E0,0E0,0E0,0E0,0E0,0E0,0E0,0E0,0E0,0E0,0E0,0E0,0E0,0E0,0E0,0E0,0E0],"parents":[2147483647,0,0,1,1,2,2,3,3,4,4,5,5,6,6,7,7,8,8,9,9,10,10,11,11,12,12,13,13,14,14,15,15,16,16,17,17,18,18,19,19,20,20,21,21,22,22,23,23,24,24,25,25,26,26,27,27,28,28,29,29,30,30],"right_children":[2,4,6,8,10,12,14,16,18,20,22,24,26,28,30,32,34,36,38,40,42,44,46,48,50,52,54,56,58,60,62,-1,-1,-1,-1,-1,-1,-1,-1,-1,-1,-1,-1,-1,-1,-1,-1,-1,-1,-1,-1,-1,-1,-1,-1,-1,-1,-1,-1,-1,-1,-1,-1],"split_conditions":[5.0846255E-1,6.0116816E-1,3.8373482E-1,1.4756492E-1,1E0,5.42531E-1,6.8362826E-1,6.1209434E-1,3.89207E-1,7.8195564E-2,2.1027955E-1,2.6481757E-1,7.116778E-1,6.5027815E-1,5.868722E-1,2.1113539E-1,2.8089888E-2,2.083E-1,5.678099E-1,8.62069E-3,5.6739207E-2,5.361782E-1,9.285425E-1,1.3551296E-1,1.4841387E-1,3.75E-1,8.583411E-1,7.9948646E-1,9.846E-1,5.675874E-1,1.0526316E-1,1.0518881E-1,7.425277E-2,-2.1239527E-1,2.6418865E-2,6.4831235E-2,2.803575E-2,3.105549E-2,-3.0148515E-2,5.396098E-2,-4.87899E-2,-6.26243E-2,-1.9837517E-2,5.8447927E-2,-4.7535103E-2,-8.405845E-3,3.456639E-2,2.9697776E-2,8.0498815E-2,5.5971075E-2,1.731263E-2,1.0956652E-2,-1.4321938E-1,-6.006061E-2,-9.205636E-3,-6.7739645E-3,-4.667694E-2,-6.0943034E-2,-1.0374953E-1,-4.3387495E-2,-7.234797E-2,-8.321616E-2,-1.21745445E-1],"split_indices":[32,33,33,32,123,31,33,31,33,32,32,31,32,31,31,33,6,41,31,77,7,31,12,10,33,55,81,32,50,10,21,0,0,0,0,0,0,0,0,0,0,0,0,0,0,0,0,0,0,0,0,0,0,0,0,0,0,0,0,0,0,0,0],"split_type":[0,0,0,0,0,0,0,0,0,0,0,0,0,0,0,0,0,0,0,0,0,0,0,0,0,0,0,0,0,0,0,0,0,0,0,0,0,0,0,0,0,0,0,0,0,0,0,0,0,0,0,0,0,0,0,0,0,0,0,0,0,0,0],"sum_hessian":[1.1002296E5,4.2152938E4,6.787002E4,3.1254963E4,1.0897976E4,1.5471069E4,5.2398953E4,7.2567007E3,2.3998262E4,4.777216E3,6.1207603E3,1.2936204E4,2.5348662E3,3.6016633E4,1.638232E4,6.928169E3,3.2853162E2,8.968658E3,1.5029604E4,3.9817667E2,4.379039E3,1.8001692E3,4.3205913E3,2.0161807E3,1.0920023E4,1.2318157E3,1.3030505E3,3.169586E4,4.3207734E3,1.3206041E4,3.1762798E3,1.3427345E3,5.5854346E3,1.2017895E1,3.165137E2,7.9874824E3,9.811758E2,1.3684616E4,1.3449872E3,3.4041623E2,5.7760445E1,1.1226747E3,3.2563643E3,1.657107E3,1.4306209E2,3.196379E3,1.1242122E3,4.4965396E2,1.5665266E3,2.3206877E3,8.599335E3,1.1807904E3,5.1025265E1,8.463446E2,4.5670587E2,2.4809883E4,6.8859775E3,3.3827798E3,9.379937E2,7.6262705E3,5.57977E3,2.5256135E3,6.506662E2],"tree_param":{"num_deleted":"0","num_feature":"240","num_nodes":"63","size_leaf_vector":"1"}},{"base_weights":[3.5587645E-3,-1.735939E-1,2.060092E-1,-9.959696E-2,-4.7260448E-1,3.0057672E-1,-1.4301921E-1,1.3236481E-1,-2.1035184E-1,-6.6575617E-1,-3.5897917E-1,4.5738835E-2,3.655965E-1,-4.215315E-1,-3.0923396E-2,-2.5856188E-1,1.9473988E-1,-3.1492922E-1,5.100686E-2,-9.295838E-1,-5.695331E-1,-3.038888E-1,-8.39326E-1,-8.375619E-3,4.9389762E-1,4.989955E-1,2.057377E-1,-5.122854E-1,7.008273E-2,6.300149E-2,-2.847903E-1,-6.611388E-2,-1.1797615E-2,-6.350392E-3,2.822566E-2,-5.1818054E-2,-2.4411991E-2,-2.6374683E-2,1.2502289E-2,-1.3790576E-1,-8.4006555E-2,-7.949929E-2,-4.065123E-2,-5.9982568E-2,-2.2502093E-2,-3.266236E-2,-1.0107179E-1,5.5115162E-3,-3.294333E-2,5.610119E-2,-6.9903515E-2,5.4432016E-2,2.043995E-2,4.228903E-2,5.5002593E-3,-7.9539075E-2,-3.9071184E-2,-1.04437016E-1,1.6650997E-2,1.0208233E-2,-6.12769E-2,-2.5317872E-2,-1.2001858E-1],"categories":[],"categories_nodes":[],"categories_segments":[],"categories_sizes":[],"default_left":[0,0,0,0,0,0,0,0,0,0,0,0,0,0,0,0,0,0,0,0,0,0,0,0,0,0,0,0,0,0,0,0,0,0,0,0,0,0,0,0,0,0,0,0,0,0,0,0,0,0,0,0,0,0,0,0,0,0,0,0,0,0,0],"id":7,"left_children":[1,3,5,7,9,11,13,15,17,19,21,23,25,27,29,31,33,35,37,39,41,43,45,47,49,51,53,55,57,59,61,-1,-1,-1,-1,-1,-1,-1,-1,-1,-1,-1,-1,-1,-1,-1,-1,-1,-1,-1,-1,-1,-1,-1,-1,-1,-1,-1,-1,-1,-1,-1,-1],"loss_changes":[3.9194812E3,1.289543E3,1.6834255E3,1.2003872E3,2.5351392E2,6.648989E2,3.394522E2,3.6825015E2,8.6437305E2,1.0815564E2,1.9244104E2,1.9786122E2,6.81688E2,1.3925165E2,1.849073E2,1.17541916E2,2.9434158E2,3.2494336E2,2.105993E2,4.481433E1,1.15074524E2,1.5237292E2,6.545618E1,1.484239E2,7.076732E1,2.3258691E2,4.7607343E2,9.035278E1,5.2523422E1,1.495614E2,6.0297012E1,0E0,0E0,0E0,0E0,0E0,0E0,0E0,0E0,0E0,0E0,0E0,0E0,0E0,0E0,0E0,0E0,0E0,0E0,0E0,0E0,0E0,0E0,0E0,0E0,0E0,0E0,0E0,0E0,0E0,0E0,0E0,0E0],"parents":[2147483647,0,0,1,1,2,2,3,3,4,4,5,5,6,6,7,7,8,8,9,9,10,10,11,11,12,12,13,13,14,14,15,15,16,16,17,17,18,18,19,19,20,20,21,21,22,22,23,23,24,24,25,25,26,26,27,27,28,28,29,29,30,30],"right_children":[2,4,6,8,10,12,14,16,18,20,22,24,26,28,30,32,34,36,38,40,42,44,46,48,50,52,54,56,58,60,62,-1,-1,-1,-1,-1,-1,-1,-1,-1,-1,-1,-1,-1,-1,-1,-1,-1,-1,-1,-1,-1,-1,-1,-1,-1,-1,-1,-1,-1,-1,-1,-1],"split_conditions":[9.0899956E-1,1E0,1E0,4.2102593E-1,4.422676E-1,1E0,1E0,9.89011E-2,1E0,7.753708E-2,1E0,4.1666668E-2,3.589628E-1,1E0,1.9101124E-1,1E0,4.0280673E-1,5.977528E-2,9.89011E-2,6.385781E-1,8.301139E-1,7.5809515E-1,2.1899661E-1,1.875E-1,1.009E-1,1.9101124E-1,1E0,9.89011E-2,3.7974155E-1,8.563E-1,1E0,-6.611388E-2,-1.1797615E-2,-6.350392E-3,2.822566E-2,-5.1818054E-2,-2.4411991E-2,-2.6374683E-2,1.2502289E-2,-1.3790576E-1,-8.4006555E-2,-7.949929E-2,-4.065123E-2,-5.9982568E-2,-2.2502093E-2,-3.266236E-2,-1.0107179E-1,5.5115162E-3,-3.294333E-2,5.610119E-2,-6.9903515E-2,5.4432016E-2,2.043995E-2,4.228903E-2,5.5002593E-3,-7.9539075E-2,-3.9071184E-2,-1.04437016E-1,1.6650997E-2,1.0208233E-2,-6.12769E-2,-2.5317872E-2,-1.2001858E-1],"split_indices":[11,125,125,10,13,83,83,14,109,6,1,80,10,22,6,83,13,6,14,12,11,11,10,69,44,6,108,14,13,51,204,0,0,0,0,0,0,0,0,0,0,0,0,0,0,0,0,0,0,0,0,0,0,0,0,0,0,0,0,0,0,0,0],"split_type":[0,0,0,0,0,0,0,0,0,0,0,0,0,0,0,0,0,0,0,0,0,0,0,0,0,0,0,0,0,0,0,0,0,0,0,0,0,0,0,0,0,0,0,0,0,0,0,0,0,0,0,0,0,0,0,0,0,0,0,0,0,0,0],"sum_hessian":[1.0928342E5,5.8283258E4,5.1000164E4,4.6722137E4,1.1561117E4,4.012786E4,1.0872305E4,1.5099013E4,3.1623127E4,4.2802544E3,7.280863E3,8.1574277E3,3.197043E4,3.119317E3,7.7529883E3,2.0772158E3,1.3021797E4,2.2585709E4,9.037417E3,1.1415778E3,3.1386768E3,6.53321E3,7.476525E2,7.279429E3,8.779981E2,1.742636E4,1.4544071E4,2.6331797E3,4.861372E2,5.65976E3,2.0932285E3,5.366833E2,1.5405325E3,3.2960647E3,9.725732E3,5.833858E3,1.6751852E4,1.7201029E3,7.3173145E3,1.8720586E2,9.5437195E2,1.315478E3,1.8231987E3,1.3733538E3,5.1598564E3,1.8804366E2,5.596089E2,6.0782524E3,1.2011769E3,8.317345E2,4.6263615E1,1.5102013E4,2.3243464E3,5.9584214E3,8.585649E3,7.8939417E2,1.8437855E3,3.79302E1,4.48207E2,5.3511436E3,3.0861584E2,2.0245895E3,6.8639084E1],"tree_param":{"num_deleted":"0","num_feature":"240","num_nodes":"63","size_leaf_vector":"1"}},{"base_weights":[-2.5861326E-3,3.4331858E-1,-1.8054424E-1,4.56818E-1,1.7214872E-2,1.5152135E-1,-3.2745343E-1,7.264786E-1,3.7569064E-1,3.2392257E-1,-1.8444782E-1,3.1930032E-1,-4.8395353E-3,-1.8433909E-1,-4.963227E-1,9.477727E-1,6.7158365E-1,6.621505E-1,2.996245E-1,5.2365327E-1,1.10925846E-1,2.1978225E-1,-2.898618E-1,4.2109182E-1,1.079357E-1,-4.843638E-1,5.6187693E-2,-3.145654E-1,-1.4250149E-3,-3.98058E-1,-7.067108E-1,-1.6661668E-2,9.717023E-2,4.6456825E-2,7.2251335E-2,7.182253E-2,1.9871108E-2,3.631305E-2,-1.167348E-3,5.5867773E-2,-1.5017547E-1,-6.2299915E-2,1.8111324E-2,-1.07767E-1,2.6367653E-2,-5.9248548E-2,-1.7925728E-2,6.284973E-2,3.3312645E-2,-7.5858207E-3,2.589941E-2,-9.630595E-2,-3.3669617E-2,-1.235856E-2,1.910103E-2,-2.1785114E-2,-5.641209E-2,8.635184E-3,-3.3602923E-2,-3.14829E-2,-6.296494E-2,-7.519825E-2,-3.165303E-2],"categories":[],"categories_nodes":[],"categories_segments":[],"categories_sizes":[],"default_left":[0,0,0,0,0,0,0,0,0,0,0,0,0,0,0,0,0,0,0,0,0,0,0,0,0,0,0,0,0,0,0,0,0,0,0,0,0,0,0,0,0,0,0,0,0,0,0,0,0,0,0,0,0,0,0,0,0,0,0,0,0,0,0],"id":8,"left_children":[1,3,5,7,9,11,13,15,17,19,21,23,25,27,29,31,33,35,37,39,41,43,45,47,49,51,53,55,57,59,61,-1,-1,-1,-1,-1,-1,-1,-1,-1,-1,-1,-1,-1,-1,-1,-1,-1,-1,-1,-1,-1,-1,-1,-1,-1,-1,-1,-1,-1,-1,-1,-1],"loss_changes":[6.71299E3,1.3711621E3,3.51285E3,6.009302E2,5.917199E2,5.794249E2,1.2064111E3,7.655859E1,4.601714E2,1.6138766E2,2.4601053E2,2.2918408E2,3.3461264E2,6.437015E2,4.731455E2,3.3777832E1,5.3381836E1,1.1503894E2,3.300808E2,1.3975201E2,9.47804E1,6.8306526E1,1.5314105E2,1.3098315E2,9.620786E1,9.092706E1,2.4587494E2,3.8085913E2,3.3013153E2,3.00719E2,1.2852075E2,0E0,0E0,0E0,0E0,0E0,0E0,0E0,0E0,0E0,0E0,0E0,0E0,0E0,0E0,0E0,0E0,0E0,0E0,0E0,0E0,0E0,0E0,0E0,0E0,0E0,0E0,0E0,0E0,0E0,0E0,0E0,0E0],"parents":[2147483647,0,0,1,1,2,2,3,3,4,4,5,5,6,6,7,7,8,8,9,9,10,10,11,11,12,12,13,13,14,14,15,15,16,16,17,17,18,18,19,19,20,20,21,21,22,22,23,23,24,24,25,25,26,26,27,27,28,28,29,29,30,30],"right_children":[2,4,6,8,10,12,14,16,18,20,22,24,26,28,30,32,34,36,38,40,42,44,46,48,50,52,54,56,58,60,62,-1,-1,-1,-1,-1,-1,-1,-1,-1,-1,-1,-1,-1,-1,-1,-1,-1,-1,-1,-1,-1,-1,-1,-1,-1,-1,-1,-1,-1,-1,-1,-1],"split_conditions":[4.6460637E-1,6.0116816E-1,4.5932934E-1,2.7395734E-1,1E0,2.92269E-1,7.243171E-1,8.950937E-2,1.2360009E-1,1E0,1.5818574E-1,7.413527E-1,7.692308E-2,9.1664803E-1,7.11925E-1,2.1324355E-2,5.28431E-2,7.9E-2,7.069898E-1,9.0947014E-1,4.3190595E-2,5.3E-3,5.708764E-2,1.3846417E-1,1E0,8.477557E-1,1E0,7.2668433E-1,1E0,1E0,2.9411765E-2,-1.6661668E-2,9.717023E-2,4.6456825E-2,7.2251335E-2,7.182253E-2,1.9871108E-2,3.631305E-2,-1.167348E-3,5.5867773E-2,-1.5017547E-1,-6.2299915E-2,1.8111324E-2,-1.07767E-1,2.6367653E-2,-5.9248548E-2,-1.7925728E-2,6.284973E-2,3.3312645E-2,-7.5858207E-3,2.589941E-2,-9.630595E-2,-3.3669617E-2,-1.235856E-2,1.910103E-2,-2.1785114E-2,-5.641209E-2,8.635184E-3,-3.3602923E-2,-3.14829E-2,-6.296494E-2,-7.519825E-2,-3.165303E-2],"split_indices":[32,33,33,33,108,33,32,32,32,2,32,32,14,11,33,8,7,73,10,10,7,66,6,33,123,11,123,33,125,125,78,0,0,0,0,0,0,0,0,0,0,0,0,0,0,0,0,0,0,0,0,0,0,0,0,0,0,0,0,0,0,0,0],"split_type":[0,0,0,0,0,0,0,0,0,0,0,0,0,0,0,0,0,0,0,0,0,0,0,0,0,0,0,0,0,0,0,0,0,0,0,0,0,0,0,0,0,0,0,0,0,0,0,0,0,0,0,0,0,0,0,0,0,0,0,0,0,0,0],"sum_hessian":[1.0905202E5,3.7045055E4,7.200697E4,2.7480238E4,9.564817E3,2.2085674E4,4.9921297E4,6.3535664E3,2.1126672E4,3.793975E3,5.770842E3,1.0653343E4,1.1432331E4,2.7022336E4,2.289896E4,1.2595928E3,5.0939736E3,4.431237E3,1.6695436E4,1.9572084E3,1.8367666E3,1.1934075E3,4.5774346E3,7.1898E3,3.4635422E3,1.2899052E3,1.0142427E4,1.5784084E4,1.1238253E4,1.5610673E4,7.288288E3,2.6353617E1,1.2332393E3,1.0077728E3,4.0862007E3,3.952452E3,4.7878467E2,1.3866458E4,2.828977E3,1.9246504E3,3.2557953E1,1.5963574E2,1.6771309E3,3.8282413E1,1.1551251E3,1.2240284E3,3.353406E3,2.1393877E3,5.050412E3,1.562696E3,1.9008463E3,3.0279852E2,9.871066E2,4.3466543E3,5.795772E3,1.1376888E4,4.407197E3,8.90337E3,2.3348826E3,1.1485419E4,4.125254E3,6.529733E3,7.585553E2],"tree_param":{"num_deleted":"0","num_feature":"240","num_nodes":"63","size_leaf_vector":"1"}},{"base_weights":[-4.286651E-3,1.9702892E-1,-2.6123375E-1,2.9919538E-1,-1.4526504E-1,4.1055333E-2,-4.0292215E-1,5.05681E-1,1.7408657E-1,-9.3943E-2,-6.5708685E-1,1.355225E-1,-3.5310566E-1,1.8232471E-1,-4.564344E-1,2.6237345E-1,5.76189E-1,4.8986003E-1,1.0375342E-1,-3.6195308E-1,-9.821318E-3,-1.8202981E-1,-7.9196614E-1,6.0242915E-1,7.9557955E-2,-2.5018013E-1,-7.7185535E-1,7.695827E-1,9.229801E-2,-3.7230554E-1,-6.967357E-1,4.8647054E-2,1.2425035E-2,6.1717153E-2,1.387238E-2,1.6012484E-2,5.6077935E-2,1.5518682E-2,-3.185598E-2,-9.838864E-2,-3.035742E-2,1.9719288E-2,-1.5912084E-2,-4.1132934E-2,1.05005875E-1,-6.79143E-2,-1.2671572E-1,6.1809428E-2,-1.9198191E-1,1.6606582E-2,-2.078368E-2,6.699251E-2,-3.0708624E-2,-1.0032665E-1,-2.4683049E-2,9.1004826E-2,-2.0209588E-2,2.8441489E-2,-2.2843994E-2,-2.6115377E-2,-5.6398124E-2,-5.332269E-2,-7.876888E-2],"categories":[],"categories_nodes":[],"categories_segments":[],"categories_sizes":[],"default_left":[0,0,0,0,0,0,0,0,0,0,0,0,0,0,0,0,0,0,0,0,0,0,0,0,0,0,0,0,0,0,0,0,0,0,0,0,0,0,0,0,0,0,0,0,0,0,0,0,0,0,0,0,0,0,0,0,0,0,0,0,0,0,0],"id":9,"left_children":[1,3,5,7,9,11,13,15,17,19,21,23,25,27,29,31,33,35,37,39,41,43,45,47,49,51,53,55,57,59,61,-1,-1,-1,-1,-1,-1,-1,-1,-1,-1,-1,-1,-1,-1,-1,-1,-1,-1,-1,-1,-1,-1,-1,-1,-1,-1,-1,-1,-1,-1,-1,-1],"loss_changes":[5.594326E3,2.1206675E3,2.0349314E3,1.2063438E3,3.6610168E2,5.646513E2,1.0131655E3,3.0211328E2,6.458506E2,2.8565735E2,8.124579E1,3.1958588E2,1.2616702E2,1.4324118E2,5.989238E2,1.2253116E2,2.4481494E2,1.2378735E2,5.1670605E2,1.09599335E2,2.9811792E2,8.0155815E1,5.216394E1,5.291147E1,2.7163177E2,1.2350368E2,6.997211E1,4.9343857E1,1.449643E2,4.676089E2,1.1386133E2,0E0,0E0,0E0,0E0,0E0,0E0,0E0,0E0,0E0,0E0,0E0,0E0,0E0,0E0,0E0,0E0,0E0,0E0,0E0,0E0,0E0,0E0,0E0,0E0,0E0,0E0,0E0,0E0,0E0,0E0,0E0,0E0],"parents":[2147483647,0,0,1,1,2,2,3,3,4,4,5,5,6,6,7,7,8,8,9,9,10,10,11,11,12,12,13,13,14,14,15,15,16,16,17,17,18,18,19,19,20,20,21,21,22,22,23,23,24,24,25,25,26,26,27,27,28,28,29,29,30,30],"right_children":[2,4,6,8,10,12,14,16,18,20,22,24,26,28,30,32,34,36,38,40,42,44,46,48,50,52,54,56,58,60,62,-1,-1,-1,-1,-1,-1,-1,-1,-1,-1,-1,-1,-1,-1,-1,-1,-1,-1,-1,-1,-1,-1,-1,-1,-1,-1,-1,-1,-1,-1,-1,-1],"split_conditions":[6.447098E-1,6.409053E-1,4.8093027E-1,3.117191E-1,6.6324466E-1,5.235185E-1,3.021753E-1,1E0,2.550091E-1,5.6739207E-2,2.6429355E-1,2.3345697E-1,1.045E-1,1.1547388E-1,8.200153E-1,4.1144472E-1,5.235185E-1,5.09126E-2,5.868722E-1,5.477633E-1,1.0325477E-1,2.4764802E-1,8.4043074E-1,1E0,1.593715E-1,8.4243335E-2,5.8139535E-3,8.0123794E-1,1E0,6.8362826E-1,1E0,4.8647054E-2,1.2425035E-2,6.1717153E-2,1.387238E-2,1.6012484E-2,5.6077935E-2,1.5518682E-2,-3.185598E-2,-9.838864E-2,-3.035742E-2,1.9719288E-2,-1.5912084E-2,-4.1132934E-2,1.05005875E-1,-6.79143E-2,-1.2671572E-1,6.1809428E-2,-1.9198191E-1,1.6606582E-2,-2.078368E-2,6.699251E-2,-3.0708624E-2,-1.0032665E-1,-2.4683049E-2,9.1004826E-2,-2.0209588E-2,2.8441489E-2,-2.2843994E-2,-2.6115377E-2,-5.6398124E-2,-5.332269E-2,-7.876888E-2],"split_indices":[32,33,33,32,31,31,31,83,33,7,32,31,76,31,32,33,31,7,31,81,8,32,31,98,8,33,79,32,2,33,130,0,0,0,0,0,0,0,0,0,0,0,0,0,0,0,0,0,0,0,0,0,0,0,0,0,0,0,0,0,0,0,0],"split_type":[0,0,0,0,0,0,0,0,0,0,0,0,0,0,0,0,0,0,0,0,0,0,0,0,0,0,0,0,0,0,0,0,0,0,0,0,0,0,0,0,0,0,0,0,0,0,0,0,0,0,0,0,0,0,0,0,0,0,0,0,0,0,0],"sum_hessian":[1.08148055E5,6.063856E4,4.7509496E4,4.6699895E4,1.3938661E4,1.5162133E4,3.2347363E4,1.7618475E4,2.9081422E4,1.2669439E4,1.2692225E3,1.2231346E4,2.9307869E3,2.709709E3,2.9637654E4,3.9595747E3,1.36589E4,5.296383E3,2.378504E4,3.0258464E3,9.643593E3,2.811912E2,9.880313E2,1.3081141E3,1.0923231E4,2.3538303E3,5.7695654E2,3.5917926E2,2.3505298E3,2.1954121E4,7.6835317E3,1.5089176E3,2.450657E3,1.248854E4,1.1703606E3,9.3808215E2,4.358301E3,2.1203324E4,2.5817139E3,2.5829318E2,2.7675532E3,4.0406409E3,5.6029517E3,2.3763243E2,4.3558758E1,8.004194E2,1.8761192E2,1.3007902E3,7.323974E0,8.396306E3,2.5269258E3,1.3647162E2,2.217359E3,3.9982007E2,1.7713646E2,3.1386978E2,4.5309483E1,1.4700854E3,8.804443E2,1.3897432E4,8.05669E3,2.7488025E3,4.9347295E3],"tree_param":{"num_deleted":"0","num_feature":"240","num_nodes":"63","size_leaf_vector":"1"}},{"base_weights":[-1.7354122E-4,2.8690156E-1,-1.4707959E-1,5.249359E-1,1.7552938E-1,-1.3447139E-2,-4.1703478E-1,7.881564E-1,4.6728298E-1,4.7026226E-1,9.048698E-2,4.957452E-1,-5.995825E-2,-3.5112837E-1,-7.105227E-1,-9.925012E-2,8.121754E-1,6.703824E-1,4.053192E-1,3.0988863E-1,6.106219E-1,2.846248E-1,-3.8350414E-2,7.4155486E-1,3.0621475E-1,2.3183298E-1,-1.3901393E-1,-5.82087E-1,-2.6334348E-1,-9.0624267E-1,-5.63491E-1,9.440127E-2,-8.547692E-2,3.2424055E-2,8.444058E-2,-1.5461476E-1,6.800916E-2,1.9773299E-2,4.7877103E-2,-1.8065367E-2,3.9533537E-2,6.2419813E-2,-8.871172E-2,4.9012512E-2,1.5951138E-2,1.6773682E-2,-1.8668778E-2,3.2440852E-2,8.002136E-2,-7.011279E-3,4.5174662E-2,2.7007539E-2,-3.8919266E-2,-5.9288205E-3,-4.11047E-2,5.407188E-3,-6.23628E-2,-1.7503189E-2,-4.588938E-2,-6.974101E-2,-1.1364454E-1,-3.4851156E-2,-7.506266E-2],"categories":[],"categories_nodes":[],"categories_segments":[],"categories_sizes":[],"default_left":[0,0,0,0,0,0,0,0,0,0,0,0,0,0,0,0,0,0,0,0,0,0,0,0,0,0,0,0,0,0,0,0,0,0,0,0,0,0,0,0,0,0,0,0,0,0,0,0,0,0,0,0,0,0,0,0,0,0,0,0,0,0,0],"id":10,"left_children":[1,3,5,7,9,11,13,15,17,19,21,23,25,27,29,31,33,35,37,39,41,43,45,47,49,51,53,55,57,59,61,-1,-1,-1,-1,-1,-1,-1,-1,-1,-1,-1,-1,-1,-1,-1,-1,-1,-1,-1,-1,-1,-1,-1,-1,-1,-1,-1,-1,-1,-1,-1,-1],"loss_changes":[4.528171E3,9.6345435E2,2.5622114E3,1.7543384E2,6.206198E2,1.1251893E3,4.5463745E2,4.4415283E1,1.1935498E2,1.24622925E2,4.8070996E2,1.8503174E2,1.00425146E3,3.8925342E2,1.23565674E2,4.471491E1,3.1576904E1,4.8840515E1,1.11E2,1.0862767E2,6.065686E1,1.9703564E2,3.5321194E2,4.2084717E1,1.2309384E2,2.2051636E2,7.4287305E2,1.3979993E2,2.4028711E2,8.804529E1,9.889441E1,0E0,0E0,0E0,0E0,0E0,0E0,0E0,0E0,0E0,0E0,0E0,0E0,0E0,0E0,0E0,0E0,0E0,0E0,0E0,0E0,0E0,0E0,0E0,0E0,0E0,0E0,0E0,0E0,0E0,0E0,0E0,0E0],"parents":[2147483647,0,0,1,1,2,2,3,3,4,4,5,5,6,6,7,7,8,8,9,9,10,10,11,11,12,12,13,13,14,14,15,15,16,16,17,17,18,18,19,19,20,20,21,21,22,22,23,23,24,24,25,25,26,26,27,27,28,28,29,29,30,30],"right_children":[2,4,6,8,10,12,14,16,18,20,22,24,26,28,30,32,34,36,38,40,42,44,46,48,50,52,54,56,58,60,62,-1,-1,-1,-1,-1,-1,-1,-1,-1,-1,-1,-1,-1,-1,-1,-1,-1,-1,-1,-1,-1,-1,-1,-1,-1,-1,-1,-1,-1,-1,-1,-1],"split_conditions":[4.6460637E-1,4.2655733E-1,6.0116816E-1,8.950937E-2,1.4756492E-1,2.3345697E-1,5.868722E-1,5E-1,1.6701381E-1,9.0899956E-1,1E0,1.4456835E-1,2.92269E-1,1E0,5.2919954E-1,9.786E-1,8.0085975E-1,5.105516E-1,5.986311E-2,3.6E-3,1E-1,1E0,3.867531E-1,3.9325844E-2,1.470124E-1,7.2894084E-1,1E0,2.4899827E-1,6.0028183E-1,7.4296E-1,7.562855E-1,9.440127E-2,-8.547692E-2,3.2424055E-2,8.444058E-2,-1.5461476E-1,6.800916E-2,1.9773299E-2,4.7877103E-2,-1.8065367E-2,3.9533537E-2,6.2419813E-2,-8.871172E-2,4.9012512E-2,1.5951138E-2,1.6773682E-2,-1.8668778E-2,3.2440852E-2,8.002136E-2,-7.011279E-3,4.5174662E-2,2.7007539E-2,-3.8919266E-2,-5.9288205E-3,-4.11047E-2,5.407188E-3,-6.23628E-2,-1.7503189E-2,-4.588938E-2,-6.974101E-2,-1.1364454E-1,-3.4851156E-2,-7.506266E-2],"split_indices":[32,33,33,32,32,31,31,23,33,11,108,31,33,83,10,50,11,11,7,47,52,130,10,6,10,31,125,31,10,32,31,0,0,0,0,0,0,0,0,0,0,0,0,0,0,0,0,0,0,0,0,0,0,0,0,0,0,0,0,0,0,0,0],"split_type":[0,0,0,0,0,0,0,0,0,0,0,0,0,0,0,0,0,0,0,0,0,0,0,0,0,0,0,0,0,0,0,0,0,0,0,0,0,0,0,0,0,0,0,0,0,0,0,0,0,0,0,0,0,0,0,0,0,0,0,0,0,0,0],"sum_hessian":[1.0736915E5,3.634498E4,7.102417E4,1.1583663E4,2.4761318E4,4.750796E4,2.3516207E4,2.0790168E3,9.504646E3,5.543743E3,1.9217576E4,3.9754993E3,4.353246E4,1.9205555E4,4.3106523E3,5.470632E1,2.0243105E3,2.2196038E3,7.2850425E3,2.5888992E3,2.954844E3,7.665563E3,1.1552014E4,1.7295125E3,2.2459868E3,9.279668E3,3.4252793E4,5.2878335E3,1.3917721E4,1.846945E3,2.4637078E3,2.2872797E1,3.1833525E1,1.2611524E2,1.8981953E3,8.990089E0,2.2106138E3,1.9049763E3,5.380066E3,3.838924E2,2.2050068E3,2.9288787E3,2.5965534E1,2.8997573E3,4.7658057E3,4.8348105E3,6.7172026E3,2.140248E2,1.5154877E3,6.264868E2,1.6195E3,8.741911E3,5.3775653E2,2.6490379E4,7.762416E3,3.241101E2,4.9637236E3,9.589117E3,4.3286035E3,9.7053564E2,8.7640924E2,1.1478882E3,1.3158195E3],"tree_param":{"num_deleted":"0","num_feature":"240","num_nodes":"63","size_leaf_vector":"1"}},{"base_weights":[-9.652264E-4,1.6655977E-1,-2.1214151E-1,4.4670388E-1,7.5011775E-2,5.4008715E-2,-3.3047107E-1,6.8404454E-1,3.7776735E-1,1.3270332E-1,-2.9900795E-1,1.24617144E-1,-2.9419985E-1,1.792327E-1,-3.6851975E-1,2.2234142E-1,7.284353E-1,1.3075964E-1,4.4060573E-1,-1.39615135E-2,2.814843E-1,-6.225988E-1,-2.1054363E-1,5.191498E-1,7.30828E-2,-2.0218685E-1,-6.2975305E-1,-4.0505162E-1,2.5161895E-1,-3.0879176E-1,-6.456616E-1,3.2132775E-2,-1.5047312E-1,8.307244E-2,5.4314505E-2,-2.3730205E-1,1.4738508E-2,5.5747103E-2,3.0563703E-2,3.6193185E-2,-6.9416882E-3,3.4460913E-2,-6.4148786E-3,-5.328996E-2,-1.2545262E-1,-9.920968E-3,-5.488803E-2,5.6269467E-2,-6.802864E-2,-3.2124333E-3,2.8504273E-2,-1.2371631E-2,-6.727604E-2,1.8502913E-1,-6.755508E-2,-7.360111E-2,3.2337826E-2,3.5115447E-2,-1.9624209E-2,-2.3849387E-2,-5.469644E-2,-6.1889123E-2,-1.1665223E-1],"categories":[],"categories_nodes":[],"categories_segments":[],"categories_sizes":[],"default_left":[0,0,0,0,0,0,0,0,0,0,0,0,0,0,0,0,0,0,0,0,0,0,0,0,0,0,0,0,0,0,0,0,0,0,0,0,0,0,0,0,0,0,0,0,0,0,0,0,0,0,0,0,0,0,0,0,0,0,0,0,0,0,0],"id":11,"left_children":[1,3,5,7,9,11,13,15,17,19,21,23,25,27,29,31,33,35,37,39,41,43,45,47,49,51,53,55,57,59,61,-1,-1,-1,-1,-1,-1,-1,-1,-1,-1,-1,-1,-1,-1,-1,-1,-1,-1,-1,-1,-1,-1,-1,-1,-1,-1,-1,-1,-1,-1,-1,-1],"loss_changes":[3.7650688E3,1.5220094E3,1.48271E3,2.3889551E2,9.6523035E2,3.5630103E2,6.321052E2,6.72417E1,1.757893E2,8.456501E2,1.7099329E2,2.4492285E2,7.530754E1,9.5876656E1,5.0180127E2,5.0044163E1,5.640503E1,9.6050644E1,1.4227942E2,4.0685632E2,4.1976184E2,7.204965E1,1.7683618E2,7.307315E1,2.3766373E2,7.0774506E1,6.0914917E1,6.0508945E1,8.9915504E1,4.1763428E2,7.4240234E1,0E0,0E0,0E0,0E0,0E0,0E0,0E0,0E0,0E0,0E0,0E0,0E0,0E0,0E0,0E0,0E0,0E0,0E0,0E0,0E0,0E0,0E0,0E0,0E0,0E0,0E0,0E0,0E0,0E0,0E0,0E0,0E0],"parents":[2147483647,0,0,1,1,2,2,3,3,4,4,5,5,6,6,7,7,8,8,9,9,10,10,11,11,12,12,13,13,14,14,15,15,16,16,17,17,18,18,19,19,20,20,21,21,22,22,23,23,24,24,25,25,26,26,27,27,28,28,29,29,30,30],"right_children":[2,4,6,8,10,12,14,16,18,20,22,24,26,28,30,32,34,36,38,40,42,44,46,48,50,52,54,56,58,60,62,-1,-1,-1,-1,-1,-1,-1,-1,-1,-1,-1,-1,-1,-1,-1,-1,-1,-1,-1,-1,-1,-1,-1,-1,-1,-1,-1,-1,-1,-1,-1,-1],"split_conditions":[6.424629E-1,3.657648E-1,4.6715277E-1,1.3846417E-1,5.235185E-1,5.616605E-1,2.7252987E-1,3.563146E-2,5.28431E-2,9.0899956E-1,5.708764E-2,1.2663023E-1,7.99E-2,3.982099E-2,8.412816E-1,1.5384616E-1,1.0325477E-1,5.105516E-1,1.0325477E-1,1.4756492E-1,1E0,2.221E-1,2.020202E-1,7.999436E-1,9.4539976E-1,1E0,4.356E-1,7.3413277E-1,9.58E-2,7.5542E-1,3.2996634E-1,3.2132775E-2,-1.5047312E-1,8.307244E-2,5.4314505E-2,-2.3730205E-1,1.4738508E-2,5.5747103E-2,3.0563703E-2,3.6193185E-2,-6.9416882E-3,3.4460913E-2,-6.4148786E-3,-5.328996E-2,-1.2545262E-1,-9.920968E-3,-5.488803E-2,5.6269467E-2,-6.802864E-2,-3.2124333E-3,2.8504273E-2,-1.2371631E-2,-6.727604E-2,1.8502913E-1,-6.755508E-2,-7.360111E-2,3.2337826E-2,3.5115447E-2,-1.9624209E-2,-2.3849387E-2,-5.469644E-2,-6.1889123E-2,-1.1665223E-1],"split_indices":[32,33,33,33,31,31,31,6,7,11,6,33,63,7,32,14,8,11,8,32,125,41,8,10,11,159,37,0,62,33,8,0,0,0,0,0,0,0,0,0,0,0,0,0,0,0,0,0,0,0,0,0,0,0,0,0,0,0,0,0,0,0,0],"split_type":[0,0,0,0,0,0,0,0,0,0,0,0,0,0,0,0,0,0,0,0,0,0,0,0,0,0,0,0,0,0,0,0,0,0,0,0,0,0,0,0,0,0,0,0,0,0,0,0,0,0,0,0,0,0,0,0,0,0,0,0,0,0,0],"sum_hessian":[1.064241E5,5.9345695E4,4.7078406E4,1.4615926E4,4.472977E4,1.4489268E4,3.2589137E4,3.287728E3,1.1328198E4,3.8752887E4,5.9768843E3,1.2047054E4,2.442214E3,2.2634915E3,3.0325645E4,2.8890198E2,2.9988262E3,2.2980415E3,9.030156E3,1.9515684E4,1.9237203E4,1.2818838E3,4.6950005E3,1.3907538E3,1.06563E4,1.9179031E3,5.243111E2,2.4900308E2,2.0144884E3,2.4950559E4,5.375086E3,2.740111E2,1.4890867E1,1.9299296E3,1.0688965E3,1.42237215E1,2.2838179E3,4.837973E3,4.1921836E3,2.508279E3,1.7007404E4,1.6266388E4,2.9708152E3,1.124158E3,1.5772583E2,3.5335383E3,1.1614623E3,1.3425443E3,4.8209488E1,7.1220776E3,3.5342224E3,1.6448748E3,2.7302838E2,8.792209E0,5.155189E2,1.712059E2,7.779719E1,1.6483618E3,3.661266E2,1.9266076E4,5.6844824E3,5.114412E3,2.6067392E2],"tree_param":{"num_deleted":"0","num_feature":"240","num_nodes":"63","size_leaf_vector":"1"}},{"base_weights":[-1.385554E-4,2.6025277E-1,-1.23525865E-1,3.4277502E-1,-2.8321536E-2,9.328792E-2,-2.3495342E-1,6.3233507E-1,2.9369992E-1,1.7394048E-1,-1.5568654E-1,4.6582788E-1,4.7959223E-2,-5.8140606E-2,-3.3992538E-1,-3.789692E-1,6.4663136E-1,4.611698E-1,2.0362584E-1,2.5809583E-1,-2.6178524E-1,-4.7916663E-1,-4.1061763E-2,5.0475174E-1,-3.940319E-2,-2.7856714E-1,1.0099219E-1,-4.1731396E-1,4.7194034E-2,-2.5716028E-1,-4.889346E-1,1.892036E-2,-1.557111E-1,6.965462E-2,3.5167076E-2,1.1932022E-2,4.982191E-2,8.832714E-3,3.6889236E-2,-9.692032E-3,3.6304224E-2,3.840007E-2,-5.2747976E-2,-2.2797145E-2,-7.035329E-2,1.7566944E-2,-1.7590765E-2,5.581621E-2,2.149379E-2,3.8910225E-2,-7.1469516E-2,-2.1984784E-2,-7.333547E-2,1.632873E-2,-1.5139364E-2,-3.2847892E-2,-9.5462315E-2,1.3818974E-2,-2.4051549E-2,-4.7052685E-2,-1.839864E-2,-5.260088E-2,-7.6894346E-3],"categories":[],"categories_nodes":[],"categories_segments":[],"categories_sizes":[],"default_left":[0,0,0,0,0,0,0,0,0,0,0,0,0,0,0,0,0,0,0,0,0,0,0,0,0,0,0,0,0,0,0,0,0,0,0,0,0,0,0,0,0,0,0,0,0,0,0,0,0,0,0,0,0,0,0,0,0,0,0,0,0,0,0],"id":12,"left_children":[1,3,5,7,9,11,13,15,17,19,21,23,25,27,29,31,33,35,37,39,41,43,45,47,49,51,53,55,57,59,61,-1,-1,-1,-1,-1,-1,-1,-1,-1,-1,-1,-1,-1,-1,-1,-1,-1,-1,-1,-1,-1,-1,-1,-1,-1,-1,-1,-1,-1,-1,-1,-1],"loss_changes":[3.4083562E3,8.122158E2,1.7389163E3,3.7669995E2,1.9543362E2,4.1259912E2,8.8240356E2,5.5802856E1,3.4203394E2,1.0755725E2,1.7258057E2,5.2142456E1,3.7727463E2,6.7013654E2,3.6778613E2,3.657273E1,5.5548218E1,1.0039563E2,2.8102765E2,9.159097E1,8.17058E1,6.8475525E1,1.00511475E2,3.7973022E1,5.5407192E1,8.1132034E1,2.9469446E2,1.9140881E2,3.5861624E2,2.9938867E2,1.6267603E2,0E0,0E0,0E0,0E0,0E0,0E0,0E0,0E0,0E0,0E0,0E0,0E0,0E0,0E0,0E0,0E0,0E0,0E0,0E0,0E0,0E0,0E0,0E0,0E0,0E0,0E0,0E0,0E0,0E0,0E0,0E0,0E0],"parents":[2147483647,0,0,1,1,2,2,3,3,4,4,5,5,6,6,7,7,8,8,9,9,10,10,11,11,12,12,13,13,14,14,15,15,16,16,17,17,18,18,19,19,20,20,21,21,22,22,23,23,24,24,25,25,26,26,27,27,28,28,29,29,30,30],"right_children":[2,4,6,8,10,12,14,16,18,20,22,24,26,28,30,32,34,36,38,40,42,44,46,48,50,52,54,56,58,60,62,-1,-1,-1,-1,-1,-1,-1,-1,-1,-1,-1,-1,-1,-1,-1,-1,-1,-1,-1,-1,-1,-1,-1,-1,-1,-1,-1,-1,-1,-1,-1,-1],"split_conditions":[4.4528416E-1,6.369632E-1,4.8488507E-1,7.8195564E-2,1E0,1.2663023E-1,1E0,1.4202247E-2,3.89207E-1,1.7419752E-1,5.708764E-2,1E0,8.791209E-2,9.89011E-2,7.5475276E-1,5.629972E-1,9.826E-1,3.563146E-2,1E0,7.0083874E-1,1.8964277E-1,2.6429355E-1,1.0325477E-1,7.9948646E-1,4.7138046E-2,8.412816E-1,7.83E-2,8.392224E-1,1.593715E-1,5.782731E-2,4.1666668E-2,1.892036E-2,-1.557111E-1,6.965462E-2,3.5167076E-2,1.1932022E-2,4.982191E-2,8.832714E-3,3.6889236E-2,-9.692032E-3,3.6304224E-2,3.840007E-2,-5.2747976E-2,-2.2797145E-2,-7.035329E-2,1.7566944E-2,-1.7590765E-2,5.581621E-2,2.149379E-2,3.8910225E-2,-7.1469516E-2,-2.1984784E-2,-7.333547E-2,1.632873E-2,-1.5139364E-2,-3.2847892E-2,-9.5462315E-2,1.3818974E-2,-2.4051549E-2,-4.7052685E-2,-1.839864E-2,-5.260088E-2,-7.6894346E-3],"split_indices":[32,33,33,32,108,33,108,6,33,8,6,1,14,14,32,33,64,6,109,81,32,32,8,32,8,32,76,32,8,7,80,0,0,0,0,0,0,0,0,0,0,0,0,0,0,0,0,0,0,0,0,0,0,0,0,0,0,0,0,0,0,0,0],"split_type":[0,0,0,0,0,0,0,0,0,0,0,0,0,0,0,0,0,0,0,0,0,0,0,0,0,0,0,0,0,0,0,0,0,0,0,0,0,0,0,0,0,0,0,0,0,0,0,0,0,0,0,0,0,0,0,0,0,0,0,0,0,0,0],"sum_hessian":[1.0608152E5,3.410554E4,7.1975984E4,2.6521207E4,7.5843325E3,2.4433627E4,4.754236E4,3.8417368E3,2.2679469E4,2.9303787E3,4.653954E3,2.6494546E3,2.1784174E4,1.771131E4,2.9831049E4,5.319595E1,3.788541E3,7.9305347E3,1.4748935E4,2.4563674E3,4.7401108E2,1.2168181E3,3.4371357E3,2.4599377E3,1.895167E2,3.043144E3,1.874103E4,4.0156523E3,1.3695659E4,1.9180326E4,1.0650723E4,3.6454662E1,1.6741287E1,3.2390498E3,5.494911E2,7.7587177E2,7.154663E3,8.688741E3,6.0601934E3,5.604696E2,1.895898E3,1.3804338E2,3.3596768E2,5.750367E2,6.417814E2,1.3181826E3,2.1189534E3,2.076356E3,3.8358188E2,1.1620365E2,7.331304E1,2.6964756E3,3.4666855E2,1.5031286E4,3.7097432E3,3.447309E3,5.6834326E2,1.0405246E4,3.2904128E3,4.8966953E3,1.4283631E4,9.771257E3,8.7946576E2],"tree_param":{"num_deleted":"0","num_feature":"240","num_nodes":"63","size_leaf_vector":"1"}},{"base_weights":[1.7169643E-3,1.1361071E-1,-2.2457474E-1,1.9691695E-1,-1.2521173E-1,1.00200884E-1,-2.984494E-1,1.0154267E-1,3.4203598E-1,-6.539232E-2,-4.1104242E-1,1.4052401E-1,-3.8706705E-1,-3.9136717E-1,-1.305621E-1,4.1250774E-1,4.7492653E-2,4.7109804E-1,2.0215578E-1,-4.3889466E-1,-1.30328005E-2,-4.552148E-3,-5.397127E-1,2.2939695E-1,-1.1933853E-1,-2.4686658E-1,-1.5025645E0,-3.0143085E-1,-5.35661E-1,-4.5898283E-1,-5.5581238E-2,6.1485913E-2,3.1570625E-2,-1.5944397E-2,1.1734201E-2,4.9849223E-2,2.4945652E-3,2.4152962E-2,-3.7707333E-2,-8.2032144E-2,-2.811172E-2,8.400627E-3,-1.96738E-2,-4.9582597E-2,1.1780174E-2,-6.355476E-2,-2.5073323E-2,4.186277E-3,4.1281547E-2,-2.1141618E-2,3.703819E-2,-1.588036E-2,-1.9326365E-1,-1.7066585E-1,1.6954821E-1,-5.745687E-2,-2.4823464E-2,-5.7632156E-2,-6.670949E-3,-3.4868147E-2,-9.350153E-2,-3.290234E-2,2.4189681E-3],"categories":[],"categories_nodes":[],"categories_segments":[],"categories_sizes":[],"default_left":[0,0,0,0,0,0,0,0,0,0,0,0,0,0,0,0,0,0,0,0,0,0,0,0,0,0,0,0,0,0,0,0,0,0,0,0,0,0,0,0,0,0,0,0,0,0,0,0,0,0,0,0,0,0,0,0,0,0,0,0,0,0,0],"id":13,"left_children":[1,3,5,7,9,11,13,15,17,19,21,23,25,27,29,31,33,35,37,39,41,43,45,47,49,51,53,55,57,59,61,-1,-1,-1,-1,-1,-1,-1,-1,-1,-1,-1,-1,-1,-1,-1,-1,-1,-1,-1,-1,-1,-1,-1,-1,-1,-1,-1,-1,-1,-1,-1,-1],"loss_changes":[2.666948E3,1.4022134E3,8.3615283E2,7.231654E2,3.1162335E2,1.2695593E2,4.428457E2,5.299502E2,3.7399536E2,2.947838E2,1.6497491E2,1.3780603E2,7.6871155E1,2.3700806E2,2.4909772E2,9.1260315E1,3.8831427E2,1.3170117E2,2.2691891E2,1.1130127E2,2.3571103E2,4.5705032E1,6.619208E1,1.5290588E2,6.866382E1,6.500525E1,3.8758064E1,1.6347571E2,1.3374133E2,9.8400055E1,1.7968655E2,0E0,0E0,0E0,0E0,0E0,0E0,0E0,0E0,0E0,0E0,0E0,0E0,0E0,0E0,0E0,0E0,0E0,0E0,0E0,0E0,0E0,0E0,0E0,0E0,0E0,0E0,0E0,0E0,0E0,0E0,0E0,0E0],"parents":[2147483647,0,0,1,1,2,2,3,3,4,4,5,5,6,6,7,7,8,8,9,9,10,10,11,11,12,12,13,13,14,14,15,15,16,16,17,17,18,18,19,19,20,20,21,21,22,22,23,23,24,24,25,25,26,26,27,27,28,28,29,29,30,30],"right_children":[2,4,6,8,10,12,14,16,18,20,22,24,26,28,30,32,34,36,38,40,42,44,46,48,50,52,54,56,58,60,62,-1,-1,-1,-1,-1,-1,-1,-1,-1,-1,-1,-1,-1,-1,-1,-1,-1,-1,-1,-1,-1,-1,-1,-1,-1,-1,-1,-1,-1,-1,-1,-1],"split_conditions":[7.0238984E-1,6.21118E-1,3.517042E-1,1E0,1E0,1E0,9.210027E-1,2.1866061E-1,1E0,3.964045E-2,3.2475647E-1,1.593715E-1,1.1896745E-1,6.546335E-1,5E-1,3.0281237E-1,4.2865083E-1,2.1548821E-1,1E0,7.311277E-1,7.880422E-1,3.8126996E-1,9.5193166E-1,8.890839E-2,9.7390497E-1,7.8E-3,1E0,9.89011E-2,4.1666668E-2,2.2E-1,5.819586E-2,6.1485913E-2,3.1570625E-2,-1.5944397E-2,1.1734201E-2,4.9849223E-2,2.4945652E-3,2.4152962E-2,-3.7707333E-2,-8.2032144E-2,-2.811172E-2,8.400627E-3,-1.96738E-2,-4.9582597E-2,1.1780174E-2,-6.355476E-2,-2.5073323E-2,4.186277E-3,4.1281547E-2,-2.1141618E-2,3.703819E-2,-1.588036E-2,-1.9326365E-1,-1.7066585E-1,1.6954821E-1,-5.745687E-2,-2.4823464E-2,-5.7632156E-2,-6.670949E-3,-3.4868147E-2,-9.350153E-2,-3.290234E-2,2.4189681E-3],"split_indices":[32,33,33,109,125,1,11,33,2,6,32,8,8,33,23,32,13,8,1,81,33,13,11,7,81,60,201,14,80,67,7,0,0,0,0,0,0,0,0,0,0,0,0,0,0,0,0,0,0,0,0,0,0,0,0,0,0,0,0,0,0,0,0],"split_type":[0,0,0,0,0,0,0,0,0,0,0,0,0,0,0,0,0,0,0,0,0,0,0,0,0,0,0,0,0,0,0,0,0,0,0,0,0,0,0,0,0,0,0,0,0,0,0,0,0,0,0,0,0,0,0,0,0,0,0,0,0,0,0],"sum_hessian":[1.0532509E5,7.047703E4,3.484806E4,5.2250977E4,1.8226057E4,6.457696E3,2.8390361E4,3.1530428E4,2.0720547E4,1.5072809E4,3.1532483E3,5.9647993E3,4.9289655E2,1.8274791E4,1.011557E4,4.6679214E3,2.6862508E4,1.0775781E4,9.944767E3,1.8522872E3,1.3220521E4,7.5839404E2,2.3948542E3,4.444797E3,1.5200023E3,4.3894888E2,5.394765E1,1.1259803E4,7.014988E3,1.8792443E3,8.236326E3,1.5087393E3,3.159182E3,6.7786636E3,2.0083844E4,1.0152303E4,6.234788E2,9.312332E3,6.324347E2,5.407722E2,1.311515E3,8.651212E3,4.5693096E3,1.5061084E2,6.077832E2,1.797535E3,5.973193E2,2.1983486E3,2.2464482E3,1.2799191E3,2.4008324E2,4.181969E2,2.0752E1,5.1149704E1,2.7979448E0,1.8338804E3,9.425923E3,6.45507E3,5.599179E2,1.5271265E3,3.521177E2,1.859416E3,6.37691E3],"tree_param":{"num_deleted":"0","num_feature":"240","num_nodes":"63","size_leaf_vector":"1"}},{"base_weights":[3.280046E-3,2.3707022E-1,-9.310392E-2,3.0247447E-1,-2.6056843E-2,1.3514381E-3,-2.9163232E-1,5.111504E-1,2.4270251E-1,-1.3521643E-1,2.4090727E-1,6.419107E-2,-2.1575025E-1,-2.3143809E-1,-4.926734E-1,3.1149608E-1,5.6836957E-1,3.170068E-1,6.9995664E-2,-9.0447135E-2,-7.4433815E-1,6.12839E-1,1.1410751E-1,1.3641441E-1,-1.8625315E-1,-1.8439827E-3,-3.146995E-1,-9.929793E-2,-3.5124683E-1,-4.433826E-1,-9.249922E-1,-2.3953557E-1,3.2344036E-2,5.715994E-2,-2.4944286E-1,5.082826E-2,2.1748297E-2,2.6070809E-2,-6.032397E-3,-2.0282378E-3,-4.7440603E-2,-4.07543E-2,-1.3287605E-1,6.838767E-2,-7.2932035E-2,2.130636E-2,-5.821985E-2,1.7403563E-2,-2.0445878E-2,5.5354033E-3,-2.7878245E-2,-6.8497094E-3,3.908504E-2,-2.1328669E-2,-6.093061E-2,-2.8618341E-2,3.1287197E-3,-1.2246984E-2,-4.4729527E-2,-6.331321E-2,-3.1664006E-2,-1.1829672E-1,-5.0428044E-2],"categories":[],"categories_nodes":[],"categories_segments":[],"categories_sizes":[],"default_left":[0,0,0,0,0,0,0,0,0,0,0,0,0,0,0,0,0,0,0,0,0,0,0,0,0,0,0,0,0,0,0,0,0,0,0,0,0,0,0,0,0,0,0,0,0,0,0,0,0,0,0,0,0,0,0,0,0,0,0,0,0,0,0],"id":14,"left_children":[1,3,5,7,9,11,13,15,17,19,21,23,25,27,29,31,33,35,37,39,41,43,45,47,49,51,53,55,57,59,61,-1,-1,-1,-1,-1,-1,-1,-1,-1,-1,-1,-1,-1,-1,-1,-1,-1,-1,-1,-1,-1,-1,-1,-1,-1,-1,-1,-1,-1,-1,-1,-1],"loss_changes":[2.3671692E3,5.277617E2,1.3948612E3,3.0622754E2,1.7797084E2,6.8766174E2,2.9009045E2,6.228784E1,2.4501343E2,1.1813483E2,8.352032E1,7.070956E2,2.3948572E2,2.9216864E2,1.1732019E2,4.0225006E1,4.3454834E1,2.5403174E2,1.4280283E2,1.0879964E2,5.7844116E1,4.3442307E1,9.128662E1,3.8913776E2,1.9563232E2,9.372053E1,2.3100171E2,2.14237E2,2.1264624E2,1.19115234E2,6.067279E1,0E0,0E0,0E0,0E0,0E0,0E0,0E0,0E0,0E0,0E0,0E0,0E0,0E0,0E0,0E0,0E0,0E0,0E0,0E0,0E0,0E0,0E0,0E0,0E0,0E0,0E0,0E0,0E0,0E0,0E0,0E0,0E0],"parents":[2147483647,0,0,1,1,2,2,3,3,4,4,5,5,6,6,7,7,8,8,9,9,10,10,11,11,12,12,13,13,14,14,15,15,16,16,17,17,18,18,19,19,20,20,21,21,22,22,23,23,24,24,25,25,26,26,27,27,28,28,29,29,30,30],"right_children":[2,4,6,8,10,12,14,16,18,20,22,24,26,28,30,32,34,36,38,40,42,44,46,48,50,52,54,56,58,60,62,-1,-1,-1,-1,-1,-1,-1,-1,-1,-1,-1,-1,-1,-1,-1,-1,-1,-1,-1,-1,-1,-1,-1,-1,-1,-1,-1,-1,-1,-1,-1,-1],"split_conditions":[4.1595522E-1,6.871477E-1,6.0116816E-1,3.2117033E-1,1E0,1E0,1E0,1E0,1E0,9.285231E-1,4.4960624E-1,6.6719276E-1,3.413524E-1,4.925028E-1,8.6369E-1,5.705114E-1,4.726E-1,1E0,2.1027955E-1,4.95E-2,9.333644E-1,3.9122787E-1,1E0,8.2537776E-1,1E0,2.9411765E-2,2.16E-2,7.283318E-1,1E0,9.2786945E-2,5.8883876E-1,-2.3953557E-1,3.2344036E-2,5.715994E-2,-2.4944286E-1,5.082826E-2,2.1748297E-2,2.6070809E-2,-6.032397E-3,-2.0282378E-3,-4.7440603E-2,-4.07543E-2,-1.3287605E-1,6.838767E-2,-7.2932035E-2,2.130636E-2,-5.821985E-2,1.7403563E-2,-2.0445878E-2,5.5354033E-3,-2.7878245E-2,-6.8497094E-3,3.908504E-2,-2.1328669E-2,-6.093061E-2,-2.8618341E-2,3.1287197E-3,-1.2246984E-2,-4.4729527E-2,-6.331321E-2,-3.1664006E-2,-1.1829672E-1,-5.0428044E-2],"split_indices":[32,10,33,33,109,125,125,128,2,10,33,10,33,10,32,11,45,108,32,71,81,32,234,32,108,78,39,81,108,7,10,0,0,0,0,0,0,0,0,0,0,0,0,0,0,0,0,0,0,0,0,0,0,0,0,0,0,0,0,0,0,0,0],"split_type":[0,0,0,0,0,0,0,0,0,0,0,0,0,0,0,0,0,0,0,0,0,0,0,0,0,0,0,0,0,0,0,0,0,0,0,0,0,0,0,0,0,0,0,0,0,0,0,0,0,0,0,0,0,0,0,0,0,0,0,0,0,0,0],"sum_hessian":[1.0504855E5,3.0665197E4,7.438335E4,2.4560229E4,6.104969E3,5.0403492E4,2.3979857E4,5.466838E3,1.909339E4,4.3335195E3,1.7714497E3,3.908975E4,1.1313743E4,1.845604E4,5.5238193E3,1.2191854E3,4.2476523E3,1.3349257E4,5.744134E3,4.0378906E3,2.9562888E2,4.4940683E2,1.3220428E3,3.0340564E4,8.749185E3,3.5786082E3,7.7351353E3,8.777231E3,9.678808E3,4.960297E3,5.635223E2,4.4795065E0,1.2147059E3,4.2439907E3,3.6620755E0,4.5672705E3,8.781986E3,2.3313652E3,3.4127683E3,3.414903E3,6.2298755E2,1.8862439E2,1.0700449E2,4.2728217E2,2.2124691E1,1.158146E3,1.6389684E2,2.7325244E4,3.0153215E3,2.4229414E3,6.326243E3,3.060044E3,5.185642E2,5.7556006E3,1.9795344E3,3.6098467E3,5.167385E3,2.8626235E3,6.8161836E3,1.984803E3,2.9754941E3,3.4819925E2,2.15323E2],"tree_param":{"num_deleted":"0","num_feature":"240","num_nodes":"63","size_leaf_vector":"1"}},{"base_weights":[6.944151E-3,9.681579E-2,-1.9780447E-1,2.9973567E-1,2.2471353E-2,2.8045616E-1,-2.3912196E-1,8.342666E-2,3.6338115E-1,6.442695E-2,-2.9438794E-1,3.685817E-1,-1.6761266E-1,-5.277773E-1,-1.8781154E-1,1.00955926E-1,-1.0068561E0,4.0274364E-1,4.4089586E-2,1.2378447E-1,-1.8896104E-1,-2.1023975E-1,-5.9108746E-1,1.2811488E-1,5.684505E-1,-2.696842E-1,1.4451114E0,1.8251319E-1,-5.605391E-1,-9.8363586E-2,-3.6239398E-1,1.0927788E-2,-1.861193E-1,-1.6631311E-1,3.7064448E-2,4.7981955E-2,2.746879E-2,-1.0264643E-2,2.665828E-2,1.8064352E-2,-1.6733095E-2,-2.8756097E-2,4.318181E-3,-3.3605278E-2,-2.4765495E-3,-1.4798073E-1,-5.132234E-2,8.47469E-3,1.3302861E-1,6.7192145E-2,-2.3153301E-2,-4.459769E-2,6.958183E-2,1.7392533E-1,-1.212356E-1,-1.7054185E-1,3.6614932E-2,-6.192263E-2,-1.0686469E-2,-2.365825E-3,-3.179794E-2,-6.344812E-2,-2.9140288E-2],"categories":[],"categories_nodes":[],"categories_segments":[],"categories_sizes":[],"default_left":[0,0,0,0,0,0,0,0,0,0,0,0,0,0,0,0,0,0,0,0,0,0,0,0,0,0,0,0,0,0,0,0,0,0,0,0,0,0,0,0,0,0,0,0,0,0,0,0,0,0,0,0,0,0,0,0,0,0,0,0,0,0,0],"id":15,"left_children":[1,3,5,7,9,11,13,15,17,19,21,23,25,27,29,31,33,35,37,39,41,43,45,47,49,51,53,55,57,59,61,-1,-1,-1,-1,-1,-1,-1,-1,-1,-1,-1,-1,-1,-1,-1,-1,-1,-1,-1,-1,-1,-1,-1,-1,-1,-1,-1,-1,-1,-1,-1,-1],"loss_changes":[1.9222625E3,1.0952104E3,6.2975867E2,2.679618E2,7.063739E2,1.001396E2,4.343474E2,8.470548E1,1.8901111E2,7.057426E2,1.5499304E2,1.01734314E2,6.907312E1,1.03110596E2,3.8891406E2,7.135882E1,6.402197E1,1.320232E2,5.3955315E1,6.2929987E2,2.0386026E2,1.12974594E2,9.419574E1,5.0081905E1,9.588367E1,6.724545E1,2.1645035E1,6.8550354E1,1.1260071E2,2.7021442E2,1.6279419E2,0E0,0E0,0E0,0E0,0E0,0E0,0E0,0E0,0E0,0E0,0E0,0E0,0E0,0E0,0E0,0E0,0E0,0E0,0E0,0E0,0E0,0E0,0E0,0E0,0E0,0E0,0E0,0E0,0E0,0E0,0E0,0E0],"parents":[2147483647,0,0,1,1,2,2,3,3,4,4,5,5,6,6,7,7,8,8,9,9,10,10,11,11,12,12,13,13,14,14,15,15,16,16,17,17,18,18,19,19,20,20,21,21,22,22,23,23,24,24,25,25,26,26,27,27,28,28,29,29,30,30],"right_children":[2,4,6,8,10,12,14,16,18,20,22,24,26,28,30,32,34,36,38,40,42,44,46,48,50,52,54,56,58,60,62,-1,-1,-1,-1,-1,-1,-1,-1,-1,-1,-1,-1,-1,-1,-1,-1,-1,-1,-1,-1,-1,-1,-1,-1,-1,-1,-1,-1,-1,-1,-1,-1],"split_conditions":[7.1535265E-1,3.9655888E-1,2.7998605E-1,1E0,5.804712E-1,4.9159488E-1,8.791209E-2,8.155133E-1,5.616605E-1,7.037204E-1,7.73E-2,9.082134E-2,6.3461107E-1,1.4841387E-1,6.151478E-1,1E0,9.9627215E-1,1.0325477E-1,5.675874E-1,1E0,1E0,1.0744121E-1,4.196209E-2,2.1052632E-1,2.2334455E-1,1.9629695E-1,1.3680239E-1,6.8638116E-2,1E0,6.773394E-1,4.9382716E-2,1.0927788E-2,-1.861193E-1,-1.6631311E-1,3.7064448E-2,4.7981955E-2,2.746879E-2,-1.0264643E-2,2.665828E-2,1.8064352E-2,-1.6733095E-2,-2.8756097E-2,4.318181E-3,-3.3605278E-2,-2.4765495E-3,-1.4798073E-1,-5.132234E-2,8.47469E-3,1.3302861E-1,6.7192145E-2,-2.3153301E-2,-4.459769E-2,6.958183E-2,1.7392533E-1,-1.212356E-1,-1.7054185E-1,3.6614932E-2,-6.192263E-2,-1.0686469E-2,-2.365825E-3,-3.179794E-2,-6.344812E-2,-2.9140288E-2],"split_indices":[32,33,31,83,31,9,14,31,31,10,45,7,10,33,33,199,81,8,10,125,109,7,7,21,8,7,7,7,144,10,8,0,0,0,0,0,0,0,0,0,0,0,0,0,0,0,0,0,0,0,0,0,0,0,0,0,0,0,0,0,0,0,0],"split_type":[0,0,0,0,0,0,0,0,0,0,0,0,0,0,0,0,0,0,0,0,0,0,0,0,0,0,0,0,0,0,0,0,0,0,0,0,0,0,0,0,0,0,0,0,0,0,0,0,0,0,0,0,0,0,0,0,0,0,0,0,0,0,0],"sum_hessian":[1.0446255E5,7.2597414E4,3.1865127E4,1.9465139E4,5.3132277E4,2.5334944E3,2.9331633E4,4.4257734E3,1.5039365E4,4.6920316E4,6.2119614E3,2.1172534E3,4.1624103E2,4.4255693E3,2.4906062E4,4.3566357E3,6.9137375E1,1.3388554E4,1.6508113E3,3.8015492E4,8.904824E3,4.8407617E3,1.3711997E3,9.617683E2,1.155485E3,3.922479E2,2.3993137E1,1.9492557E2,4.2306436E3,1.6469447E4,8.436616E3,4.339177E3,1.74592E1,4.6687126E1,2.2450247E1,8.356241E3,5.032313E3,9.9508417E2,6.557271E2,3.1804078E4,6.2114155E3,6.24998E3,2.654844E3,2.8837866E3,1.9569749E3,1.090078E2,1.262192E3,9.293141E2,3.2454247E1,1.02329126E3,1.3219374E2,3.3214E2,6.01079E1,2.1913197E1,2.0799408E0,1.6544762E1,1.7838081E2,3.7457324E3,4.8491135E2,1.2289957E4,4.1794897E3,1.744095E3,6.6925215E3],"tree_param":{"num_deleted":"0","num_feature":"240","num_nodes":"63","size_leaf_vector":"1"}},{"base_weights":[-1.9629372E-4,2.1927546E-1,-7.8764446E-2,2.5609547E-1,-1.974746E-1,1.5681143E-1,-1.389869E-1,3.123917E-1,-2.0308213E-2,-1.075636E0,-1.4832626E-1,6.06149E-1,1.2496531E-1,-2.3970488E-1,-8.587292E-3,4.8987594E-1,2.497155E-1,-4.3506166E-1,6.662805E-2,-1.4556321E0,3.0175653E-1,-1.0494874E-1,-8.624763E-1,-7.721128E-1,6.4585E-1,3.5304898E-1,6.4658076E-2,6.500509E-2,-2.788619E-1,1.5668942E-2,-7.267364E-1,4.9743865E-2,-1.232863E-1,-1.8247796E-2,2.808185E-2,-1.0780819E-1,-1.867678E-2,4.364031E-2,-8.237394E-4,-1.6718741E-1,-4.019386E-2,-1.6513339E-1,1.093745E-1,4.2388048E-2,-1.6392965E-2,-1.2901504E-1,3.170432E-2,-1.6496341E-1,1.0017141E-1,6.5542E-2,-2.0803551E-1,4.000428E-2,-2.4747698E-2,-1.4878168E-2,1.3212082E-2,-2.5428945E-2,1.660957E-2,-2.242962E-2,-4.896168E-2,-2.2192562E-2,8.764093E-3,-7.691863E-2,5.8864255E-2],"categories":[],"categories_nodes":[],"categories_segments":[],"categories_sizes":[],"default_left":[0,0,0,0,0,0,0,0,0,0,0,0,0,0,0,0,0,0,0,0,0,0,0,0,0,0,0,0,0,0,0,0,0,0,0,0,0,0,0,0,0,0,0,0,0,0,0,0,0,0,0,0,0,0,0,0,0,0,0,0,0,0,0],"id":16,"left_children":[1,3,5,7,9,11,13,15,17,19,21,23,25,27,29,31,33,35,37,39,41,43,45,47,49,51,53,55,57,59,61,-1,-1,-1,-1,-1,-1,-1,-1,-1,-1,-1,-1,-1,-1,-1,-1,-1,-1,-1,-1,-1,-1,-1,-1,-1,-1,-1,-1,-1,-1,-1,-1],"loss_changes":[1.78485E3,4.187555E2,1.0813811E3,3.9013782E2,9.546774E1,2.2199222E2,7.972633E2,2.3158618E2,1.5303249E2,6.181935E1,6.494377E1,5.6684235E1,1.9932883E2,4.0867505E2,4.6084985E2,7.142285E1,2.0700641E2,1.1721948E2,9.714214E1,2.0309937E1,4.2310585E1,6.1836388E1,6.0981018E1,4.7111862E1,2.74169E1,8.562225E1,1.6508447E2,1.2595639E2,3.4891724E2,4.3764313E2,4.871765E1,0E0,0E0,0E0,0E0,0E0,0E0,0E0,0E0,0E0,0E0,0E0,0E0,0E0,0E0,0E0,0E0,0E0,0E0,0E0,0E0,0E0,0E0,0E0,0E0,0E0,0E0,0E0,0E0,0E0,0E0,0E0,0E0],"parents":[2147483647,0,0,1,1,2,2,3,3,4,4,5,5,6,6,7,7,8,8,9,9,10,10,11,11,12,12,13,13,14,14,15,15,16,16,17,17,18,18,19,19,20,20,21,21,22,22,23,23,24,24,25,25,26,26,27,27,28,28,29,29,30,30],"right_children":[2,4,6,8,10,12,14,16,18,20,22,24,26,28,30,32,34,36,38,40,42,44,46,48,50,52,54,56,58,60,62,-1,-1,-1,-1,-1,-1,-1,-1,-1,-1,-1,-1,-1,-1,-1,-1,-1,-1,-1,-1,-1,-1,-1,-1,-1,-1,-1,-1,-1,-1,-1,-1],"split_conditions":[3.861771E-1,5.804712E-1,3.517042E-1,7.069898E-1,2.9146068E-2,1.665649E-1,9.0899956E-1,1.2360009E-1,4.699326E-2,1E0,1.5789473E-1,2.6534831E-2,1.3846417E-1,4.0359673E-1,7.697281E-1,3.689E-1,7.402858E-1,3.8126996E-1,8.950937E-2,8.711387E-1,6.4401835E-1,5.296234E-2,1E0,1.461128E-3,1E0,8.189E-1,1E0,6.3022114E-2,1E0,1E0,1E0,4.9743865E-2,-1.232863E-1,-1.8247796E-2,2.808185E-2,-1.0780819E-1,-1.867678E-2,4.364031E-2,-8.237394E-4,-1.6718741E-1,-4.019386E-2,-1.6513339E-1,1.093745E-1,4.2388048E-2,-1.6392965E-2,-1.2901504E-1,3.170432E-2,-1.6496341E-1,1.0017141E-1,6.5542E-2,-2.0803551E-1,4.000428E-2,-2.4747698E-2,-1.4878168E-2,1.3212082E-2,-2.5428945E-2,1.660957E-2,-2.242962E-2,-4.896168E-2,-2.2192562E-2,8.764093E-3,-7.691863E-2,5.8864255E-2],"split_indices":[32,31,33,10,6,31,11,32,6,132,21,6,33,31,31,76,11,13,32,10,13,32,154,5,137,65,83,7,125,83,220,0,0,0,0,0,0,0,0,0,0,0,0,0,0,0,0,0,0,0,0,0,0,0,0,0,0,0,0,0,0,0,0],"split_type":[0,0,0,0,0,0,0,0,0,0,0,0,0,0,0,0,0,0,0,0,0,0,0,0,0,0,0,0,0,0,0,0,0,0,0,0,0,0,0,0,0,0,0,0,0,0,0,0,0,0,0,0,0,0,0,0,0,0,0,0,0,0,0],"sum_hessian":[1.03506625E5,2.7285553E4,7.622108E4,2.5070914E4,2.2146372E3,1.5517747E4,6.070333E4,2.0828549E4,4.242365E3,1.1627103E2,2.0983662E3,1.0258153E3,1.4491932E4,3.424915E4,2.6454178E4,5.43398E3,1.5394569E4,7.3445245E2,3.5079126E3,9.108549E1,2.518554E1,1.9792909E3,1.190753E2,2.8204842E1,9.976105E2,3.0294836E3,1.1462448E4,3.8999668E3,3.0349184E4,2.55908E4,8.6337775E2,5.410938E3,2.3042286E1,1.033174E3,1.43613955E4,2.0366585E2,5.307866E2,5.898245E2,2.9180881E3,7.508886E1,1.5996626E1,6.9532833E0,1.8232256E1,1.979814E2,1.7813094E3,8.732053E1,3.1754766E1,1.8916677E1,9.288164E0,9.948777E2,2.7327895E0,2.8099282E3,2.1955542E2,2.7525808E3,8.709867E3,9.3746606E2,2.9625007E3,2.410922E4,6.239962E3,5.949192E3,1.964161E4,8.3678815E2,2.6589579E1],"tree_param":{"num_deleted":"0","num_feature":"240","num_nodes":"63","size_leaf_vector":"1"}},{"base_weights":[1.5874959E-3,9.846088E-2,-1.5595418E-1,1.3992243E-1,-1.901118E-1,2.7381116E-1,-1.9676262E-1,7.06984E-3,2.2811054E-1,-3.5343822E-2,-2.885815E-1,3.595293E-1,-8.616518E-3,-1.6134262E-1,-5.8543634E-1,5.95547E-1,-1.7005073E-2,2.710353E-1,-1.3289173E-1,3.9238717E-2,-7.4293464E-1,2.3583885E-1,-3.3114275E-1,-3.0311499E-2,4.5144108E-1,-8.923657E-1,8.868366E-2,-1.1789148E-1,-4.6029183E-1,-1.8949056E-1,-7.2647506E-1,4.6007227E-2,9.560003E-2,-3.750923E-2,2.279303E-3,-2.5075113E-3,3.1141365E-2,-5.220489E-4,-3.881847E-2,-1.8122537E-2,1.7414695E-2,-1.7822196E-1,-5.3190064E-2,6.1813988E-2,-1.59191E-2,-1.7234562E-2,-4.4463057E-2,7.0899755E-2,-1.9143851E-2,5.5284303E-2,-8.205326E-3,5.211348E-2,-1.6023031E-1,1.979804E-2,-5.2839603E-2,-5.305757E-3,-3.1160066E-2,-1.4393409E-2,-5.1103275E-2,5.5884223E-2,-3.264036E-2,-4.131257E-2,-9.3154564E-2],"categories":[],"categories_nodes":[],"categories_segments":[],"categories_sizes":[],"default_left":[0,0,0,0,0,0,0,0,0,0,0,0,0,0,0,0,0,0,0,0,0,0,0,0,0,0,0,0,0,0,0,0,0,0,0,0,0,0,0,0,0,0,0,0,0,0,0,0,0,0,0,0,0,0,0,0,0,0,0,0,0,0,0],"id":17,"left_children":[1,3,5,7,9,11,13,15,17,19,21,23,25,27,29,31,33,35,37,39,41,43,45,47,49,51,53,55,57,59,61,-1,-1,-1,-1,-1,-1,-1,-1,-1,-1,-1,-1,-1,-1,-1,-1,-1,-1,-1,-1,-1,-1,-1,-1,-1,-1,-1,-1,-1,-1,-1,-1],"loss_changes":[1.5735621E3,7.6392786E2,6.885906E2,6.5405786E2,1.22234375E2,8.243611E1,4.9352246E2,3.1557565E2,5.1997534E2,1.6469298E2,1.0949402E2,9.361267E1,6.833679E1,4.2681665E2,1.6707227E2,4.2310364E1,3.0497546E2,3.585569E2,1.1623737E2,8.401242E1,6.431598E1,5.5760056E1,8.164343E1,5.96156E1,1.1440289E2,7.992943E1,4.8393528E1,3.6034137E2,6.686334E1,8.089674E1,1.4146375E2,0E0,0E0,0E0,0E0,0E0,0E0,0E0,0E0,0E0,0E0,0E0,0E0,0E0,0E0,0E0,0E0,0E0,0E0,0E0,0E0,0E0,0E0,0E0,0E0,0E0,0E0,0E0,0E0,0E0,0E0,0E0,0E0],"parents":[2147483647,0,0,1,1,2,2,3,3,4,4,5,5,6,6,7,7,8,8,9,9,10,10,11,11,12,12,13,13,14,14,15,15,16,16,17,17,18,18,19,19,20,20,21,21,22,22,23,23,24,24,25,25,26,26,27,27,28,28,29,29,30,30],"right_children":[2,4,6,8,10,12,14,16,18,20,22,24,26,28,30,32,34,36,38,40,42,44,46,48,50,52,54,56,58,60,62,-1,-1,-1,-1,-1,-1,-1,-1,-1,-1,-1,-1,-1,-1,-1,-1,-1,-1,-1,-1,-1,-1,-1,-1,-1,-1,-1,-1,-1,-1,-1,-1],"split_conditions":[6.7598736E-1,7.483392E-1,2.7998605E-1,1E0,1E0,6.0116816E-1,1E0,1.5584166E-1,5.42531E-1,2.1997756E-1,1.1123856E-1,1.313416E-1,4.3190595E-2,6.7628014E-1,3.563146E-2,2.8438556E-1,3.563146E-2,3.563146E-2,7.0900154E-1,7.753708E-2,3.184493E-1,4.6223223E-1,1E0,9.571488E-2,1.593715E-1,1.148E-1,3.8314175E-3,6.778806E-1,9.757E-1,1.458E-1,1E0,4.6007227E-2,9.560003E-2,-3.750923E-2,2.279303E-3,-2.5075113E-3,3.1141365E-2,-5.220489E-4,-3.881847E-2,-1.8122537E-2,1.7414695E-2,-1.7822196E-1,-5.3190064E-2,6.1813988E-2,-1.59191E-2,-1.7234562E-2,-4.4463057E-2,7.0899755E-2,-1.9143851E-2,5.5284303E-2,-8.205326E-3,5.211348E-2,-1.6023031E-1,1.979804E-2,-5.2839603E-2,-5.305757E-3,-3.1160066E-2,-1.4393409E-2,-5.1103275E-2,5.5884223E-2,-3.264036E-2,-4.131257E-2,-9.3154564E-2],"split_indices":[32,33,31,123,108,33,1,31,31,8,32,10,7,31,6,10,6,6,31,6,32,10,130,31,8,40,106,33,50,69,237,0,0,0,0,0,0,0,0,0,0,0,0,0,0,0,0,0,0,0,0,0,0,0,0,0,0,0,0,0,0,0,0],"split_type":[0,0,0,0,0,0,0,0,0,0,0,0,0,0,0,0,0,0,0,0,0,0,0,0,0,0,0,0,0,0,0,0,0,0,0,0,0,0,0,0,0,0,0,0,0,0,0,0,0,0,0,0,0,0,0,0,0,0,0,0,0,0,0],"sum_hessian":[1.03104E5,6.3845418E4,3.9258582E4,5.5825098E4,8.0203223E3,3.4040327E3,3.5854547E4,2.2272844E4,3.3552254E4,3.1191743E3,4.901148E3,2.611237E3,7.927957E2,3.28613E4,2.9932493E3,8.744486E2,2.1398395E4,2.9986924E4,3.565329E3,2.8226062E3,2.9656796E2,3.6757062E2,4.533577E3,4.9831616E2,2.112921E3,7.781881E1,7.1497687E2,2.8692367E4,4.168933E3,7.8679114E2,2.206458E3,6.3722626E2,2.3722232E2,2.1395115E3,1.9258885E4,3.5984495E3,2.6388475E4,2.3774126E3,1.1879164E3,1.0714016E3,1.7512046E3,4.879935E1,2.4776862E2,1.8650778E2,1.8106284E2,1.8906355E3,2.642942E3,8.856189E1,4.0975427E2,1.775427E3,3.3749387E2,2.6106384E1,5.171243E1,6.0797235E2,1.070045E2,2.149824E4,7.194126E3,5.767666E2,3.5921665E3,1.21209305E2,6.6558185E2,8.739976E2,1.3324604E3],"tree_param":{"num_deleted":"0","num_feature":"240","num_nodes":"63","size_leaf_vector":"1"}},{"base_weights":[1.2341472E-2,6.31749E-2,-2.4636619E-1,-4.770776E-2,1.8228854E-1,-4.779554E-1,-1.7619246E-1,1.2011986E-1,-1.23823486E-1,-1.4473604E-2,2.4780796E-1,-2.9713137E-2,-5.41809E-1,-4.052838E-1,-1.0507805E-1,2.9992688E-1,1.7191447E-2,-2.8546166E-1,-4.5869417E-2,-2.2701871E-1,9.743017E-2,5.4604158E-2,3.0744657E-1,1.9965947E-1,-6.000913E-1,-7.3198664E-1,-3.376424E-1,-2.4335954E-1,-6.4065635E-1,1.2246002E-2,-2.969589E-1,1.8419521E-3,3.600662E-2,4.1761365E-2,-3.3081546E-3,-5.5123623E-2,-1.727899E-2,-1.4103125E-3,-5.3383864E-2,3.8431022E-2,-3.275532E-2,1.6995715E-2,-2.0758567E-2,3.989451E-2,-1.68678E-3,9.441377E-3,3.66578E-2,3.2520056E-2,-7.7819705E-2,1.4778048E-3,-1.3942115E-1,-7.58845E-2,8.774867E-2,-2.3631202E-2,-9.6903265E-2,-3.9087694E-2,1.0537113E-2,3.0075312E-2,-7.035009E-2,-1.9305203E-2,1.6234616E-2,-2.73307E-2,-1.17997564E-1],"categories":[],"categories_nodes":[],"categories_segments":[],"categories_sizes":[],"default_left":[0,0,0,0,0,0,0,0,0,0,0,0,0,0,0,0,0,0,0,0,0,0,0,0,0,0,0,0,0,0,0,0,0,0,0,0,0,0,0,0,0,0,0,0,0,0,0,0,0,0,0,0,0,0,0,0,0,0,0,0,0,0,0],"id":18,"left_children":[1,3,5,7,9,11,13,15,17,19,21,23,25,27,29,31,33,35,37,39,41,43,45,47,49,51,53,55,57,59,61,-1,-1,-1,-1,-1,-1,-1,-1,-1,-1,-1,-1,-1,-1,-1,-1,-1,-1,-1,-1,-1,-1,-1,-1,-1,-1,-1,-1,-1,-1,-1,-1],"loss_changes":[1.3563922E3,1.1385315E3,2.7518066E2,5.70314E2,5.3576697E2,1.12703735E2,2.1175922E2,2.578098E2,3.8700302E2,2.4696649E2,3.5921887E2,6.450346E1,1.3359741E2,1.172041E2,2.2337662E2,8.584808E1,1.7837381E2,2.9915375E2,3.2121167E2,2.2022995E2,1.5051385E2,1.8101971E2,3.00063E2,4.343161E1,6.905963E1,7.777753E1,1.06249664E2,9.3972466E1,7.442517E1,1.898028E2,7.8308136E1,0E0,0E0,0E0,0E0,0E0,0E0,0E0,0E0,0E0,0E0,0E0,0E0,0E0,0E0,0E0,0E0,0E0,0E0,0E0,0E0,0E0,0E0,0E0,0E0,0E0,0E0,0E0,0E0,0E0,0E0,0E0,0E0],"parents":[2147483647,0,0,1,1,2,2,3,3,4,4,5,5,6,6,7,7,8,8,9,9,10,10,11,11,12,12,13,13,14,14,15,15,16,16,17,17,18,18,19,19,20,20,21,21,22,22,23,23,24,24,25,25,26,26,27,27,28,28,29,29,30,30],"right_children":[2,4,6,8,10,12,14,16,18,20,22,24,26,28,30,32,34,36,38,40,42,44,46,48,50,52,54,56,58,60,62,-1,-1,-1,-1,-1,-1,-1,-1,-1,-1,-1,-1,-1,-1,-1,-1,-1,-1,-1,-1,-1,-1,-1,-1,-1,-1,-1,-1,-1,-1,-1,-1],"split_conditions":[5.235185E-1,9.102278E-1,8.279924E-1,4.7895578E-1,1E0,2.7997446E-1,6.4221345E-2,4.8263747E-1,4.1503406E-1,1.7435175E-1,7.3392355E-1,7.2894084E-1,1.1098631E-1,7.025178E-1,1.593715E-1,6.824741E-1,2.7998605E-1,6.4221345E-2,8.498869E-1,1.665649E-1,6.84E-2,2.7998605E-1,5.13338E-2,8.062025E-1,1.2618151E-3,4.24E-1,7.36E-2,5.675874E-1,1.6701381E-1,4.6877113E-1,9.97E-1,1.8419521E-3,3.600662E-2,4.1761365E-2,-3.3081546E-3,-5.5123623E-2,-1.727899E-2,-1.4103125E-3,-5.3383864E-2,3.8431022E-2,-3.275532E-2,1.6995715E-2,-2.0758567E-2,3.989451E-2,-1.68678E-3,9.441377E-3,3.66578E-2,3.2520056E-2,-7.7819705E-2,1.4778048E-3,-1.3942115E-1,-7.58845E-2,8.774867E-2,-2.3631202E-2,-9.6903265E-2,-3.9087694E-2,1.0537113E-2,3.0075312E-2,-7.035009E-2,-1.9305203E-2,1.6234616E-2,-2.73307E-2,-1.17997564E-1],"split_indices":[31,11,11,33,128,33,6,32,13,10,81,31,7,31,8,12,31,6,32,31,39,31,7,32,5,73,71,10,33,10,64,0,0,0,0,0,0,0,0,0,0,0,0,0,0,0,0,0,0,0,0,0,0,0,0,0,0,0,0,0,0,0,0],"split_type":[0,0,0,0,0,0,0,0,0,0,0,0,0,0,0,0,0,0,0,0,0,0,0,0,0,0,0,0,0,0,0,0,0,0,0,0,0,0,0,0,0,0,0,0,0,0,0,0,0,0,0,0,0,0,0,0,0,0,0,0,0,0,0],"sum_hessian":[1.0313768E5,8.620084E4,1.6936836E4,4.4643188E4,4.1557656E4,3.9372402E3,1.2999596E4,1.3929483E4,3.0713705E4,1.0381532E4,3.1176127E4,4.9112018E2,3.44612E3,3.0783032E3,9.921292E3,5.070261E3,8.859222E3,9.992188E3,2.0721518E4,3.5802788E3,6.801253E3,7.354046E3,2.382208E4,3.5072797E2,1.4039223E2,1.7828456E3,1.6632744E3,1.8248995E3,1.2534037E3,6.157359E3,3.7639333E3,8.927368E2,4.1775244E3,9.873907E2,7.871831E3,2.9737344E3,7.0184536E3,1.9455982E4,1.2655355E3,5.0523413E2,3.0750447E3,5.4950723E3,1.3061809E3,1.263262E3,6.090784E3,5.1762397E3,1.864584E4,3.1141473E2,3.9313225E1,7.967955E1,6.071268E1,1.7541023E3,2.874334E1,1.4344388E3,2.2883553E2,1.2823351E3,5.425645E2,7.819893E1,1.1752047E3,2.6004004E3,3.5569585E3,3.6670208E3,9.691276E1],"tree_param":{"num_deleted":"0","num_feature":"240","num_nodes":"63","size_leaf_vector":"1"}},{"base_weights":[-5.758059E-4,1.862798E-1,-6.9021665E-2,4.2898047E-1,1.433081E-1,5.9718397E-2,-1.466936E-1,7.041602E-1,3.5584605E-1,2.0014761E-1,-3.822858E-2,-1.8508352E-1,1.05854355E-1,-1.0332382E-1,-4.0227553E-1,7.125657E-1,-1.9480366E-1,-9.3075466E-1,3.7740657E-1,3.8859747E-2,2.6196703E-1,1.6742897E-1,-1.7324835E-1,-2.8572938E-1,7.1399614E-2,1.527919E-1,-1.3314773E-1,-2.7472112E-1,-4.164793E-2,-3.289286E-1,-6.237853E-1,7.320063E-2,-4.5967292E-2,-1.5807807E-1,6.419008E-2,-2.3609535E-1,3.8634997E-2,-1.0708751E-1,6.176974E-3,4.3317914E-2,9.228504E-3,-5.4822277E-2,2.2281459E-2,3.8949214E-3,-2.8525723E-2,-3.389128E-2,9.997502E-3,9.577515E-3,-1.9009139E-1,-2.6624065E-3,2.2241198E-2,-1.6177963E-2,8.045896E-2,-4.7303118E-2,-1.7119346E-2,8.8929915E-4,-2.4239365E-2,-3.7200104E-2,1.7371347E-2,-2.0890009E-2,-7.090137E-2],"categories":[],"categories_nodes":[],"categories_segments":[],"categories_sizes":[],"default_left":[0,0,0,0,0,0,0,0,0,0,0,0,0,0,0,0,0,0,0,0,0,0,0,0,0,0,0,0,0,0,0,0,0,0,0,0,0,0,0,0,0,0,0,0,0,0,0,0,0,0,0,0,0,0,0,0,0,0,0,0,0],"id":19,"left_children":[1,3,5,7,9,11,13,15,17,19,21,23,25,27,29,31,-1,33,35,37,39,41,43,45,47,49,51,53,55,57,59,-1,-1,-1,-1,-1,-1,-1,-1,-1,-1,-1,-1,-1,-1,-1,-1,-1,-1,-1,-1,-1,-1,-1,-1,-1,-1,-1,-1,-1,-1],"loss_changes":[1.3054196E3,2.853321E2,7.470205E2,8.258002E1,2.3991089E2,3.175199E2,5.1643225E2,2.0630463E1,9.060611E1,1.76534E2,1.5399211E2,1.151055E2,2.6538193E2,4.2109726E2,1.0961206E2,1.9961365E1,0E0,5.6128468E1,7.9298615E1,1.24829254E2,3.7181976E2,8.724419E1,7.957804E1,6.571735E1,6.0624466E1,2.4697867E2,1.0439864E2,2.1633612E2,2.9723267E2,1.1004529E2,5.926599E1,0E0,0E0,0E0,0E0,0E0,0E0,0E0,0E0,0E0,0E0,0E0,0E0,0E0,0E0,0E0,0E0,0E0,0E0,0E0,0E0,0E0,0E0,0E0,0E0,0E0,0E0,0E0,0E0,0E0,0E0],"parents":[2147483647,0,0,1,1,2,2,3,3,4,4,5,5,6,6,7,7,8,8,9,9,10,10,11,11,12,12,13,13,14,14,15,15,17,17,18,18,19,19,20,20,21,21,22,22,23,23,24,24,25,25,26,26,27,27,28,28,29,29,30,30],"right_children":[2,4,6,8,10,12,14,16,18,20,22,24,26,28,30,32,-1,34,36,38,40,42,44,46,48,50,52,54,56,58,60,-1,-1,-1,-1,-1,-1,-1,-1,-1,-1,-1,-1,-1,-1,-1,-1,-1,-1,-1,-1,-1,-1,-1,-1,-1,-1,-1,-1,-1,-1],"split_conditions":[3.9122787E-1,7.8195564E-2,5.127552E-1,1.1454287E-2,6.369632E-1,9.89011E-2,8.200153E-1,1E0,6.2650734E-1,5.8169663E-2,1E0,9.567329E-1,7.037204E-1,4.1239405E-1,8.8272095E-1,2.8438538E-1,-1.9480366E-1,3.928799E-1,6.7340066E-3,6.7184013E-1,1.0325477E-1,3.757459E-2,3.867531E-1,9.748703E-1,7.57779E-1,1E0,8.3333336E-2,8.049663E-2,1E0,4.1666668E-2,6.98E-2,7.320063E-2,-4.5967292E-2,-1.5807807E-1,6.419008E-2,-2.3609535E-1,3.8634997E-2,-1.0708751E-1,6.176974E-3,4.3317914E-2,9.228504E-3,-5.4822277E-2,2.2281459E-2,3.8949214E-3,-2.8525723E-2,-3.389128E-2,9.997502E-3,9.577515E-3,-1.9009139E-1,-2.6624065E-3,2.2241198E-2,-1.6177963E-2,8.045896E-2,-4.7303118E-2,-1.7119346E-2,8.8929915E-4,-2.4239365E-2,-3.7200104E-2,1.7371347E-2,-2.0890009E-2,-7.090137E-2],"split_indices":[32,32,33,32,33,14,32,9,11,6,108,11,10,13,32,6,0,9,8,11,8,7,10,12,10,128,80,6,125,80,58,0,0,0,0,0,0,0,0,0,0,0,0,0,0,0,0,0,0,0,0,0,0,0,0,0,0,0,0,0,0],"split_type":[0,0,0,0,0,0,0,0,0,0,0,0,0,0,0,0,0,0,0,0,0,0,0,0,0,0,0,0,0,0,0,0,0,0,0,0,0,0,0,0,0,0,0,0,0,0,0,0,0,0,0,0,0,0,0,0,0,0,0,0,0],"sum_hessian":[1.0206767E5,2.7363695E4,7.470398E4,4.1147793E3,2.3248916E4,2.811087E4,4.659311E4,8.6215546E2,3.2526238E3,1.770526E4,5.5436562E3,4.4572505E3,2.365362E4,3.9834914E4,6.758196E3,8.601607E2,1.9947423E0,5.2913258E1,3.1997104E3,4.9062925E3,1.2798968E4,2.1970078E3,3.3466482E3,3.2010293E3,1.2562212E3,1.9771133E4,3.8824854E3,1.0540211E4,2.9294703E4,5.0789307E3,1.6792649E3,8.4649786E2,1.3662847E1,3.743505E1,1.5478207E1,9.560056E0,3.1901504E3,9.83143E1,4.807978E3,6.369987E3,6.4289805E3,1.571776E2,2.0398303E3,1.1564465E3,2.190202E3,2.8132427E3,3.877867E2,1.2418251E3,1.4396092E1,5.5273564E3,1.4243777E4,3.7682568E3,1.1422856E2,3.6139753E3,6.9262354E3,2.3403465E4,5.8912383E3,4.6782974E3,4.0063336E2,2.867652E2,1.3924998E3],"tree_param":{"num_deleted":"0","num_feature":"240","num_nodes":"61","size_leaf_vector":"1"}},{"base_weights":[-2.220645E-3,2.0686491E-1,-4.9667638E-2,4.0197948E-1,1.5262866E-1,1.0354834E-2,-2.149061E-1,6.4440745E-1,3.4054518E-1,2.8467104E-1,6.371277E-2,4.0123355E-2,-3.1036946E-1,-1.839684E-1,-5.7444465E-1,-2.3709951E-1,6.65188E-1,2.32942E-1,4.9499804E-1,8.5594185E-2,3.5347354E-1,5.362945E-1,2.1491759E-2,4.6447584E-1,1.9110119E-2,-7.116508E-2,-5.2715695E-1,-1.3708612E-1,-4.0319985E-1,-9.084354E-1,-4.286977E-1,-2.1976757E-1,6.847703E-2,2.4990981E-2,-1.176399E-1,5.3373575E-2,-2.9269684E-2,1.0788168E-2,-2.0503362E-1,-1.679864E-2,3.9058566E-2,4.698342E-2,1.3653447E-1,-4.359781E-2,5.705799E-3,8.244531E-2,3.790921E-2,1.3198978E-2,-4.814622E-3,-4.3537825E-2,1.8010087E-3,-5.9459873E-2,-2.1256017E-3,-1.1003487E-2,-5.374359E-2,-6.460576E-2,-2.9363517E-2,-1.0633862E-1,-7.6066093E-3,-3.257891E-2,-9.762528E-2],"categories":[],"categories_nodes":[],"categories_segments":[],"categories_sizes":[],"default_left":[0,0,0,0,0,0,0,0,0,0,0,0,0,0,0,0,0,0,0,0,0,0,0,0,0,0,0,0,0,0,0,0,0,0,0,0,0,0,0,0,0,0,0,0,0,0,0,0,0,0,0,0,0,0,0,0,0,0,0,0,0],"id":20,"left_children":[1,3,5,7,9,11,13,15,17,19,21,23,25,27,29,-1,31,33,35,37,39,41,43,45,47,49,51,53,55,57,59,-1,-1,-1,-1,-1,-1,-1,-1,-1,-1,-1,-1,-1,-1,-1,-1,-1,-1,-1,-1,-1,-1,-1,-1,-1,-1,-1,-1,-1,-1],"loss_changes":[1.0090856E3,1.9902466E2,8.2224805E2,6.071588E1,1.728364E2,5.806402E2,2.4561353E2,5.3340668E1,5.4170258E1,8.111456E1,1.755625E2,4.962269E2,2.6781754E2,2.0901831E2,8.4786255E1,0E0,4.7542633E1,4.637619E1,4.1053864E1,7.271917E1,8.526227E1,3.9119797E1,1.314708E2,8.0390015E1,4.025711E2,7.980319E1,9.2431274E1,1.8144632E2,9.515338E1,6.8366486E1,6.8430984E1,0E0,0E0,0E0,0E0,0E0,0E0,0E0,0E0,0E0,0E0,0E0,0E0,0E0,0E0,0E0,0E0,0E0,0E0,0E0,0E0,0E0,0E0,0E0,0E0,0E0,0E0,0E0,0E0,0E0,0E0],"parents":[2147483647,0,0,1,1,2,2,3,3,4,4,5,5,6,6,7,7,8,8,9,9,10,10,11,11,12,12,13,13,14,14,16,16,17,17,18,18,19,19,20,20,21,21,22,22,23,23,24,24,25,25,26,26,27,27,28,28,29,29,30,30],"right_children":[2,4,6,8,10,12,14,16,18,20,22,24,26,28,30,-1,32,34,36,38,40,42,44,46,48,50,52,54,56,58,60,-1,-1,-1,-1,-1,-1,-1,-1,-1,-1,-1,-1,-1,-1,-1,-1,-1,-1,-1,-1,-1,-1,-1,-1,-1,-1,-1,-1,-1,-1],"split_conditions":[3.0281237E-1,7.8195564E-2,6.409053E-1,1.1454287E-2,1E0,1E0,1E0,5.165775E-1,1E0,1E0,2.4899827E-1,1.665649E-1,9.0981484E-4,3.8314175E-3,4.2587188E-1,-2.3709951E-1,4.9091333E-1,7.9172516E-1,1.123E-1,1.718E-1,7.6256144E-1,5.0659525E-1,2.9146068E-2,6.993883E-2,1E0,8.8761723E-1,2.9411765E-2,9.896E-1,6.507456E-1,9.6873605E-1,6.956522E-1,-2.1976757E-1,6.847703E-2,2.4990981E-2,-1.176399E-1,5.3373575E-2,-2.9269684E-2,1.0788168E-2,-2.0503362E-1,-1.679864E-2,3.9058566E-2,4.698342E-2,1.3653447E-1,-4.359781E-2,5.705799E-3,8.244531E-2,3.790921E-2,1.3198978E-2,-4.814622E-3,-4.3537825E-2,1.8010087E-3,-5.9459873E-2,-2.1256017E-3,-1.1003487E-2,-5.374359E-2,-6.460576E-2,-2.9363517E-2,-1.0633862E-1,-7.6066093E-3,-3.257891E-2,-9.762528E-2],"split_indices":[32,32,33,32,108,1,1,12,22,83,31,31,5,106,13,0,81,31,49,43,11,10,6,31,108,11,78,36,81,11,24,0,0,0,0,0,0,0,0,0,0,0,0,0,0,0,0,0,0,0,0,0,0,0,0,0,0,0,0,0,0],"split_type":[0,0,0,0,0,0,0,0,0,0,0,0,0,0,0,0,0,0,0,0,0,0,0,0,0,0,0,0,0,0,0,0,0,0,0,0,0,0,0,0,0,0,0,0,0,0,0,0,0,0,0,0,0,0,0,0,0,0,0,0,0],"sum_hessian":[1.0171537E5,1.881215E4,8.290322E4,4.0904324E3,1.4721719E4,6.081372E4,2.20895E4,8.250775E2,3.2653547E3,5.923286E3,8.798433E3,5.5649406E4,5.164311E3,2.0340725E4,1.7487744E3,4.8730154E0,8.2020447E2,1.9260416E3,1.3393132E3,1.5219218E3,4.4013647E3,7.206345E2,8.0777983E3,2.6246533E3,5.3024754E4,2.4558464E3,2.7084646E3,1.675856E4,3.582164E3,5.296975E2,1.2190769E3,4.816512E0,8.1538794E2,1.9039417E3,2.20999E1,1.2768424E3,6.2470867E1,1.5071449E3,1.4776901E1,2.921968E2,4.109168E3,6.686031E2,5.2031437E1,5.818974E2,7.495901E3,5.0153412E2,2.1231191E3,1.9797186E4,3.3227566E4,4.8226718E2,1.9735792E3,2.3897156E3,3.1874893E2,1.5699064E4,1.0594961E3,1.1121373E3,2.4700266E3,4.463324E2,8.33651E1,1.0275518E3,1.9152513E2],"tree_param":{"num_deleted":"0","num_feature":"240","num_nodes":"61","size_leaf_vector":"1"}},{"base_weights":[5.5558677E-3,5.8586646E-2,-1.7571446E-1,-1.2302721E-1,1.4778271E-1,-4.915123E-1,-1.3008985E-1,4.834892E-2,-1.980198E-1,2.6639697E-1,-1.1806677E-2,-4.5194986E-1,-1.0891397E0,-3.571769E-1,-7.391771E-2,-1.7755566E-2,3.8639817E-1,-1.3249591E-1,-3.7475267E-1,1.7001417E-1,5.431493E-1,-2.3543067E-1,1.8488166E-1,-5.8006465E-1,-2.814692E-1,-1.222986E0,8.007236E-1,-4.2150155E-1,-4.2784695E-2,-2.5981832E-2,-3.049738E-1,-4.306618E-2,2.1000193E-3,-4.6214756E-2,4.3304916E-2,-4.4066727E-2,-8.663229E-3,-3.867891E-2,1.6383167E-1,2.0991756E-2,-4.6668105E-2,1.9252496E-2,5.763023E-2,-2.858001E-2,2.7155653E-2,3.1149363E-2,1.1211249E-2,-6.5238625E-2,-6.1438424E-3,-9.936958E-3,-9.574523E-2,6.820045E-2,-1.3122344E-1,1.850956E-1,-1.4873268E-1,-7.8386016E-2,-3.4900468E-2,-1.4098324E-1,6.4965704E-4,5.0948304E-4,-3.2738544E-2,-2.5152478E-2,-8.218111E-2],"categories":[],"categories_nodes":[],"categories_segments":[],"categories_sizes":[],"default_left":[0,0,0,0,0,0,0,0,0,0,0,0,0,0,0,0,0,0,0,0,0,0,0,0,0,0,0,0,0,0,0,0,0,0,0,0,0,0,0,0,0,0,0,0,0,0,0,0,0,0,0,0,0,0,0,0,0,0,0,0,0,0,0],"id":21,"left_children":[1,3,5,7,9,11,13,15,17,19,21,23,25,27,29,31,33,35,37,39,41,43,45,47,49,51,53,55,57,59,61,-1,-1,-1,-1,-1,-1,-1,-1,-1,-1,-1,-1,-1,-1,-1,-1,-1,-1,-1,-1,-1,-1,-1,-1,-1,-1,-1,-1,-1,-1,-1,-1],"loss_changes":[9.769795E2,1.2737483E3,3.3136676E2,3.3285434E2,9.981898E2,6.815588E1,2.5637558E2,1.7618861E2,2.0857202E2,8.067771E2,9.8896173E2,5.935132E1,4.639995E1,8.0587585E1,1.78488E2,1.0555316E2,5.124887E1,1.8574045E2,1.1868555E2,5.701406E2,9.070996E1,2.6876794E2,1.1018298E2,5.8277588E1,1.4406027E2,2.9471924E1,3.274333E1,8.664575E1,4.5692513E1,1.25025955E2,7.6282166E1,0E0,0E0,0E0,0E0,0E0,0E0,0E0,0E0,0E0,0E0,0E0,0E0,0E0,0E0,0E0,0E0,0E0,0E0,0E0,0E0,0E0,0E0,0E0,0E0,0E0,0E0,0E0,0E0,0E0,0E0,0E0,0E0],"parents":[2147483647,0,0,1,1,2,2,3,3,4,4,5,5,6,6,7,7,8,8,9,9,10,10,11,11,12,12,13,13,14,14,15,15,16,16,17,17,18,18,19,19,20,20,21,21,22,22,23,23,24,24,25,25,26,26,27,27,28,28,29,29,30,30],"right_children":[2,4,6,8,10,12,14,16,18,20,22,24,26,28,30,32,34,36,38,40,42,44,46,48,50,52,54,56,58,60,62,-1,-1,-1,-1,-1,-1,-1,-1,-1,-1,-1,-1,-1,-1,-1,-1,-1,-1,-1,-1,-1,-1,-1,-1,-1,-1,-1,-1,-1,-1,-1,-1],"split_conditions":[1.593715E-1,5.977528E-2,1.9471236E-1,3.9705652E-1,1.0325477E-1,1E0,9.89011E-2,1E0,6.266629E-1,1.1452584E-1,1.5274045E-1,1.6498317E-1,1.047E-1,6.905299E-1,3.8314175E-3,8.0085975E-1,3.6626372E-1,9.89011E-2,1.532567E-2,1E0,5E-1,1E0,1E0,8.90232E-1,7.81E-2,3.7700572E-4,1E0,2.175955E-1,4.8425636E-1,8.189E-1,7.2249717E-1,-4.306618E-2,2.1000193E-3,-4.6214756E-2,4.3304916E-2,-4.4066727E-2,-8.663229E-3,-3.867891E-2,1.6383167E-1,2.0991756E-2,-4.6668105E-2,1.9252496E-2,5.763023E-2,-2.858001E-2,2.7155653E-2,3.1149363E-2,1.1211249E-2,-6.5238625E-2,-6.1438424E-3,-9.936958E-3,-9.574523E-2,6.820045E-2,-1.3122344E-1,1.850956E-1,-1.4873268E-1,-7.8386016E-2,-3.4900468E-2,-1.4098324E-1,6.4965704E-4,5.0948304E-4,-3.2738544E-2,-2.5152478E-2,-8.218111E-2],"split_indices":[8,6,6,32,8,120,14,207,10,6,6,8,61,10,106,11,13,14,106,1,23,28,108,13,73,5,3,6,11,65,31,0,0,0,0,0,0,0,0,0,0,0,0,0,0,0,0,0,0,0,0,0,0,0,0,0,0,0,0,0,0,0,0],"split_type":[0,0,0,0,0,0,0,0,0,0,0,0,0,0,0,0,0,0,0,0,0,0,0,0,0,0,0,0,0,0,0,0,0,0,0,0,0,0,0,0,0,0,0,0,0,0,0,0,0,0,0,0,0,0,0,0,0,0,0,0,0,0,0],"sum_hessian":[1.01629984E5,7.8627984E4,2.3002E4,2.5897402E4,5.2730582E4,2.902453E3,2.0099549E4,7.883062E3,1.801434E4,3.024811E4,2.248247E4,2.7238896E3,1.7856305E2,3.9848086E3,1.6114739E4,6.5944795E3,1.2885825E3,1.3143226E4,4.8711143E3,2.2436057E4,7.8120527E3,1.0520751E4,1.1961721E4,1.5538112E3,1.1700785E3,1.670826E2,1.148046E1,3.3077104E3,6.77098E2,1.3346856E4,2.767883E3,5.6498474E2,6.0294946E3,6.668715E1,1.2218954E3,1.7015304E3,1.1441695E4,4.8429653E3,2.8148859E1,2.1113488E4,1.3225687E3,6.7544025E2,7.1366123E3,9.570366E3,9.5038446E2,4.364534E3,7.5971865E3,1.3634257E3,1.9038556E2,9.2267175E2,2.474068E2,7.180237E0,1.5990236E2,7.9996123E0,3.480848E0,5.498084E2,2.757902E3,2.2599056E1,6.5449896E2,1.2100228E4,1.2466287E3,2.5098157E3,2.5806735E2],"tree_param":{"num_deleted":"0","num_feature":"240","num_nodes":"63","size_leaf_vector":"1"}},{"base_weights":[1.3658331E-3,2.906423E-2,-3.300216E-1,4.301808E-1,8.899135E-3,-4.8793858E-1,-2.3466508E-1,1.372252E-2,4.9419022E-1,1.9125156E-1,-3.3802558E-2,-4.1622245E-1,-8.555238E-1,-4.6563005E-1,-1.5161613E-1,-9.627728E-2,6.570714E-1,2.6125237E-1,5.912248E-1,1.493341E-1,4.990174E-1,-1.2967126E-1,4.1352354E-2,4.844024E-2,-4.647515E-1,-9.15358E-1,2.1613421E0,-5.679388E-1,4.3227274E-2,-4.921811E-1,-7.025126E-2,2.2823545E-3,-1.03665106E-1,-1.9699265E-1,8.469737E-2,6.454568E-2,1.6885333E-2,6.277357E-2,2.2604883E-2,-6.91835E-2,1.6268855E-2,3.5163403E-2,6.402763E-2,-2.6762668E-2,-6.904255E-3,1.1541529E-2,-9.234977E-3,-1.1356863E-1,1.8648406E-2,-4.0135752E-2,-7.9056196E-2,-9.9740185E-2,1.19886115E-1,-9.220229E-2,2.755617E-1,-4.9623813E-2,-1.4967655E-1,-2.7110422E-2,6.5122806E-2,-1.07137345E-1,-3.52344E-2,6.411346E-3,-3.7494186E-2],"categories":[],"categories_nodes":[],"categories_segments":[],"categories_sizes":[],"default_left":[0,0,0,0,0,0,0,0,0,0,0,0,0,0,0,0,0,0,0,0,0,0,0,0,0,0,0,0,0,0,0,0,0,0,0,0,0,0,0,0,0,0,0,0,0,0,0,0,0,0,0,0,0,0,0,0,0,0,0,0,0,0,0],"id":22,"left_children":[1,3,5,7,9,11,13,15,17,19,21,23,25,27,29,31,33,35,37,39,41,43,45,47,49,51,53,55,57,59,61,-1,-1,-1,-1,-1,-1,-1,-1,-1,-1,-1,-1,-1,-1,-1,-1,-1,-1,-1,-1,-1,-1,-1,-1,-1,-1,-1,-1,-1,-1,-1,-1],"loss_changes":[9.293917E2,7.5581305E2,1.174953E2,1.1922351E2,6.928024E2,7.7137085E1,9.337436E1,4.2304688E1,8.747345E1,2.1770953E2,5.194182E2,5.5532013E1,8.843338E1,6.7075745E1,9.92974E1,5.7212116E1,4.521188E1,4.0426567E1,3.6336548E1,1.6703207E2,4.189627E1,2.6495355E2,4.0018246E2,3.8410706E1,4.5720795E1,8.277881E1,2.0153046E1,7.067749E1,4.1558517E1,5.5596954E1,1.18527596E2,0E0,0E0,0E0,0E0,0E0,0E0,0E0,0E0,0E0,0E0,0E0,0E0,0E0,0E0,0E0,0E0,0E0,0E0,0E0,0E0,0E0,0E0,0E0,0E0,0E0,0E0,0E0,0E0,0E0,0E0,0E0,0E0],"parents":[2147483647,0,0,1,1,2,2,3,3,4,4,5,5,6,6,7,7,8,8,9,9,10,10,11,11,12,12,13,13,14,14,15,15,16,16,17,17,18,18,19,19,20,20,21,21,22,22,23,23,24,24,25,25,26,26,27,27,28,28,29,29,30,30],"right_children":[2,4,6,8,10,12,14,16,18,20,22,24,26,28,30,32,34,36,38,40,42,44,46,48,50,52,54,56,58,60,62,-1,-1,-1,-1,-1,-1,-1,-1,-1,-1,-1,-1,-1,-1,-1,-1,-1,-1,-1,-1,-1,-1,-1,-1,-1,-1,-1,-1,-1,-1,-1,-1],"split_conditions":[6.8940717E-1,1.665649E-1,5.2919954E-1,4.227799E-2,3.0281237E-1,8.313541E-1,7.182941E-2,3.4785795E-1,1.3850056E-1,1E0,1E0,2.8623468E-1,1E0,1E0,7.88745E-1,9.859312E-1,1.7957352E-2,6.993883E-2,7.8085685E-1,5.530929E-1,2.5524238E-1,4.164235E-1,1E0,4.7876447E-2,3.7037037E-2,4.231E-1,1E0,7.3033705E-2,5.8139535E-3,6.93E-2,2.1099888E-1,2.2823545E-3,-1.03665106E-1,-1.9699265E-1,8.469737E-2,6.454568E-2,1.6885333E-2,6.277357E-2,2.2604883E-2,-6.91835E-2,1.6268855E-2,3.5163403E-2,6.402763E-2,-2.6762668E-2,-6.904255E-3,1.1541529E-2,-9.234977E-3,-1.1356863E-1,1.8648406E-2,-4.0135752E-2,-7.9056196E-2,-9.9740185E-2,1.19886115E-1,-9.220229E-2,2.755617E-1,-4.9623813E-2,-1.4967655E-1,-2.7110422E-2,6.5122806E-2,-1.07137345E-1,-3.52344E-2,6.411346E-3,-3.7494186E-2],"split_indices":[31,31,10,7,32,31,8,10,10,28,123,32,201,109,11,11,8,31,32,11,10,13,2,7,105,59,143,6,79,63,8,0,0,0,0,0,0,0,0,0,0,0,0,0,0,0,0,0,0,0,0,0,0,0,0,0,0,0,0,0,0,0,0],"split_type":[0,0,0,0,0,0,0,0,0,0,0,0,0,0,0,0,0,0,0,0,0,0,0,0,0,0,0,0,0,0,0,0,0,0,0,0,0,0,0,0,0,0,0,0,0,0,0,0,0,0,0,0,0,0,0,0,0,0,0,0,0,0,0],"sum_hessian":[1.0125101E5,9.3441766E4,7.809242E3,4.4717163E3,8.897005E4,2.9386003E3,4.870642E3,5.95898E2,3.8758186E3,1.6880486E4,7.208956E4,2.460657E3,4.7794348E2,1.2869465E3,3.5836953E3,5.0961447E2,8.628354E1,1.1408427E3,2.7349758E3,1.4858285E4,2.0222013E3,3.1678842E4,4.041072E4,2.3268774E2,2.227969E3,4.693317E2,8.611779E0,1.071416E3,2.155305E2,6.9010547E2,2.89359E3,4.531922E2,5.6422264E1,5.1849256E0,8.109861E1,2.2001453E2,9.2082806E2,2.4857292E3,2.4924663E2,2.314105E2,1.4626875E4,9.913545E2,1.0308468E3,9.670665E3,2.2008178E4,2.600542E4,1.4405299E4,2.3539679E1,2.0914807E2,1.8669437E3,3.6102545E2,4.523078E2,1.7023895E1,1.3024702E0,7.3093095E0,9.960596E2,7.535645E1,1.4244283E2,7.3087685E1,1.3291641E2,5.57189E2,2.0086085E3,8.849815E2],"tree_param":{"num_deleted":"0","num_feature":"240","num_nodes":"63","size_leaf_vector":"1"}},{"base_weights":[4.3117055E-3,4.6558574E-2,-1.872234E-1,9.544273E-2,-1.297182E-1,-4.559492E-2,-2.6596382E-1,7.654958E-4,2.6099724E-1,-4.6870482E-1,-8.246613E-2,1.652135E-1,-1.2621982E-1,-5.635103E-1,-2.1862672E-1,3.8598627E-2,-2.4260414E-1,3.9914823E-1,1.1898486E-1,-1.5515254E-1,-5.924732E-1,-4.7483627E-2,-4.246766E-1,2.5372875E-1,-4.10868E-1,-4.3744946E-1,-2.7554687E-2,-6.150013E-1,7.1847063E-1,-1.8731195E-1,-6.423589E-1,-1.1582273E-2,1.0576413E-2,-4.9466826E-2,-1.7472317E-2,-2.1994116E-2,4.9593028E-2,-3.4426875E-2,2.0303195E-2,-6.393514E-2,1.9820165E-4,4.1331695E-3,-6.7082345E-2,-2.3230533E-3,-5.4294743E-2,-3.6715586E-2,-1.3095397E-1,3.498411E-2,-3.185455E-2,-5.120192E-2,1.524713E-1,4.424754E-3,-5.4086573E-2,-8.604663E-3,3.7884504E-2,2.533927E-2,-6.662844E-2,-1.320811E-1,1.20479874E-1,-4.4261742E-2,-1.4069043E-2,-7.1610294E-2,1.0225975E-1],"categories":[],"categories_nodes":[],"categories_segments":[],"categories_sizes":[],"default_left":[0,0,0,0,0,0,0,0,0,0,0,0,0,0,0,0,0,0,0,0,0,0,0,0,0,0,0,0,0,0,0,0,0,0,0,0,0,0,0,0,0,0,0,0,0,0,0,0,0,0,0,0,0,0,0,0,0,0,0,0,0,0,0],"id":23,"left_children":[1,3,5,7,9,11,13,15,17,19,21,23,25,27,29,31,33,35,37,39,41,43,45,47,49,51,53,55,57,59,61,-1,-1,-1,-1,-1,-1,-1,-1,-1,-1,-1,-1,-1,-1,-1,-1,-1,-1,-1,-1,-1,-1,-1,-1,-1,-1,-1,-1,-1,-1,-1,-1],"loss_changes":[8.177434E2,7.1348004E2,2.0364801E2,1.0160229E3,2.878999E2,1.1094923E2,1.651897E2,3.7971497E2,4.6263428E2,8.524533E1,1.8886627E2,9.219621E1,1.4497559E2,1.06739075E2,1.3426251E2,3.7019757E2,9.484955E1,7.163346E2,4.5290445E2,4.745483E1,7.830353E1,1.720155E2,7.399359E1,8.6250534E1,4.794906E1,5.6636795E1,8.527855E1,6.913684E1,6.371714E1,1.1220404E2,8.6252594E1,0E0,0E0,0E0,0E0,0E0,0E0,0E0,0E0,0E0,0E0,0E0,0E0,0E0,0E0,0E0,0E0,0E0,0E0,0E0,0E0,0E0,0E0,0E0,0E0,0E0,0E0,0E0,0E0,0E0,0E0,0E0,0E0],"parents":[2147483647,0,0,1,1,2,2,3,3,4,4,5,5,6,6,7,7,8,8,9,9,10,10,11,11,12,12,13,13,14,14,15,15,16,16,17,17,18,18,19,19,20,20,21,21,22,22,23,23,24,24,25,25,26,26,27,27,28,28,29,29,30,30],"right_children":[2,4,6,8,10,12,14,16,18,20,22,24,26,28,30,32,34,36,38,40,42,44,46,48,50,52,54,56,58,60,62,-1,-1,-1,-1,-1,-1,-1,-1,-1,-1,-1,-1,-1,-1,-1,-1,-1,-1,-1,-1,-1,-1,-1,-1,-1,-1,-1,-1,-1,-1,-1,-1],"split_conditions":[7.081975E-1,1.593715E-1,1E0,9.2786945E-2,1.9471236E-1,1E0,7.493859E-1,5.235185E-1,1.0325477E-1,3.9655888E-1,7.0900154E-1,7.9605347E-1,5.460337E-2,1E0,8.521628E-1,1E0,8.3402187E-1,7.041798E-2,1.24716856E-1,1.9626686E-1,8.77759E-2,2.4103194E-1,6.61E-2,1.593715E-1,1.5789473E-1,1E0,2.9411765E-2,1.6822799E-1,4.0947616E-1,9.89011E-2,4.8E-1,-1.1582273E-2,1.0576413E-2,-4.9466826E-2,-1.7472317E-2,-2.1994116E-2,4.9593028E-2,-3.4426875E-2,2.0303195E-2,-6.393514E-2,1.9820165E-4,4.1331695E-3,-6.7082345E-2,-2.3230533E-3,-5.4294743E-2,-3.6715586E-2,-1.3095397E-1,3.498411E-2,-3.185455E-2,-5.120192E-2,1.524713E-1,4.424754E-3,-5.4086573E-2,-8.604663E-3,3.7884504E-2,2.533927E-2,-6.662844E-2,-1.320811E-1,1.20479874E-1,-4.4261742E-2,-1.4069043E-2,-7.1610294E-2,1.0225975E-1],"split_indices":[33,8,130,7,6,108,11,31,8,33,31,32,6,168,32,83,11,6,6,9,9,7,52,8,21,116,78,32,13,14,39,0,0,0,0,0,0,0,0,0,0,0,0,0,0,0,0,0,0,0,0,0,0,0,0,0,0,0,0,0,0,0,0],"split_type":[0,0,0,0,0,0,0,0,0,0,0,0,0,0,0,0,0,0,0,0,0,0,0,0,0,0,0,0,0,0,0,0,0,0,0,0,0,0,0,0,0,0,0,0,0,0,0,0,0,0,0,0,0,0,0,0,0,0,0,0,0,0,0],"sum_hessian":[1.0105672E5,8.279533E4,1.8261396E4,6.4820188E4,1.7975137E4,6.525577E3,1.1735818E4,4.1238016E4,2.3582172E4,2.1979697E3,1.5777168E4,1.8050079E3,4.7205693E3,1.6093064E3,1.0126512E4,3.5690566E4,5.5474507E3,1.1952681E4,1.1629492E4,6.226966E2,1.5752732E3,1.4314958E4,1.4622097E3,1.5650905E3,2.3991748E2,1.1354545E3,3.585115E3,1.5476644E3,6.164201E1,9.430982E3,6.9552936E2,1.0817998E4,2.4872568E4,1.1756381E3,4.371813E3,1.6157676E3,1.0336913E4,1.7854258E3,9.844066E3,1.5181642E2,4.708802E2,1.7336116E2,1.401912E3,1.3647935E4,6.670234E2,1.3742887E3,8.7921036E1,1.3403671E3,2.247234E2,2.2870128E2,1.1216197E1,2.0078781E2,9.3466656E2,3.1347305E3,4.5038452E2,8.608109E1,1.4615833E3,1.1539295E1,5.0102715E1,1.4549567E3,7.976026E3,6.665754E2,2.8953989E1],"tree_param":{"num_deleted":"0","num_feature":"240","num_nodes":"63","size_leaf_vector":"1"}},{"base_weights":[8.02011E-3,-1.7564227E-1,4.861442E-2,-1.445293E-1,-6.0691303E-1,-9.222789E-2,1.0191053E-1,-8.737613E-2,-3.6414868E-1,-4.2161253E-1,-9.525735E-1,-4.427043E-2,-3.477254E-1,2.1063147E-1,3.753485E-2,-2.5238696E-1,-1.2093032E-2,2.3396131E-1,-4.0957394E-1,-5.447975E-1,3.4916568E-1,-3.2168224E-2,-1.0615517E0,-7.8939475E-2,2.5797117E-1,-2.4276972E-1,-6.2412167E-1,3.320724E-1,7.858195E-2,3.1406873E-1,5.0124945E-3,5.7944544E-3,-3.3210386E-2,-2.0738726E-2,4.6761795E-3,2.8020173E-2,-2.1131578E-1,-3.7903715E-2,-1.2385861E-1,2.0314287E-1,-5.7967927E-2,5.9836365E-2,-8.447656E-2,-9.203727E-2,1.6022511E-1,-2.4766078E-2,-1.20930254E-1,1.5853684E-2,-1.1905939E-2,3.0543748E-2,-4.1103106E-2,4.2701703E-2,-3.1453285E-2,